{"learner":{"attributes":{"scikit_learn":"{\"_estimator_type\": \"classifier\"}"},"feature_names":["Pclass","Sex","Age","SibSp","Parch","Fare","Embarked"],"feature_types":["int","int","float","int","int","float","int"],"gradient_booster":{"model":{"gbtree_model_param":{"num_parallel_tree":"1","num_trees":"100"},"iteration_indptr":[0,1,2,3,4,5,6,7,8,9,10,11,12,13,14,15,16,17,18,19,20,21,22,23,24,25,26,27,28,29,30,31,32,33,34,35,36,37,38,39,40,41,42,43,44,45,46,47,48,49,50,51,52,53,54,55,56,57,58,59,60,61,62,63,64,65,66,67,68,69,70,71,72,73,74,75,76,77,78,79,80,81,82,83,84,85,86,87,88,89,90,91,92,93,94,95,96,97,98,99,100],"tree_info":[0,0,0,0,0,0,0,0,0,0,0,0,0,0,0,0,0,0,0,0,0,0,0,0,0,0,0,0,0,0,0,0,0,0,0,0,0,0,0,0,0,0,0,0,0,0,0,0,0,0,0,0,0,0,0,0,0,0,0,0,0,0,0,0,0,0,0,0,0,0,0,0,0,0,0,0,0,0,0,0,0,0,0,0,0,0,0,0,0,0,0,0,0,0,0,0,0,0,0,0],"trees":[{"base_weights":[-4.6088736E-8,1.5174298E0,-8.026033E-1,7.241266E-1,4.5416197E-1,1.0900675E0,-9.0562326E-1,8.505861E-1,-3.493466E-1,6.110632E-1,-2.0966442E-1,-1.9019811E-1,-1.0850832E0,1.3117892E0,4.5275557E-1,-2.9906502E-1,-7.809972E-2,-1.1149173E0,-2.204807E-1,9.074253E-1,5.58904E-1,6.616261E-2,9.278334E-1,3.249583E-1,-2.88355E-1,-2.2826111E-1,-1.1384635E0,2.1694231E-1,-2.9906502E-1,3.911461E-1,-1.5675834E-1,1.878335E-1,-1.4421208E-1,4.0108398E-1,-1.1713186E-3,2.3559172E-1,-2.0966442E-1,8.366905E-2,-1.9367547E-1,1.6283082E-2,-1.2173548E-1,-2.3263665E-1,-3.5293573E-1],"categories":[],"categories_nodes":[],"categories_segments":[],"categories_sizes":[],"default_left":[0,0,0,0,0,0,0,0,0,0,0,0,0,0,0,0,0,0,0,0,0,0,0,0,0,0,0,0,0,0,0,0,0,0,0,0,0,0,0,0,0,0,0],"id":0,"left_children":[1,3,5,-1,7,9,11,13,-1,-1,-1,15,17,19,21,-1,23,25,27,29,-1,31,33,35,37,39,41,-1,-1,-1,-1,-1,-1,-1,-1,-1,-1,-1,-1,-1,-1,-1,-1],"loss_changes":[2.0597461E2,5.4663315E1,2.2555458E1,0E0,1.8953007E1,1.1863965E1,1.3332649E1,3.637888E0,0E0,0E0,0E0,1.9441069E0,1.9233093E0,5.7278633E-1,2.4933155E0,0E0,1.8493524E0,1.4320526E0,3.6890762E0,5.1064944E0,0E0,2.9791362E0,2.3548236E0,4.117815E0,3.0462942E0,1.8991312E-1,1.7292023E-1,0E0,0E0,0E0,0E0,0E0,0E0,0E0,0E0,0E0,0E0,0E0,0E0,0E0,0E0,0E0,0E0],"parents":[2147483647,0,0,1,1,2,2,4,4,5,5,6,6,7,7,11,11,12,12,13,13,14,14,16,16,17,17,18,18,19,19,21,21,22,22,23,23,24,24,25,25,26,26],"right_children":[2,4,6,-1,8,10,12,14,-1,-1,-1,16,18,20,22,-1,24,26,28,30,-1,32,34,36,38,40,42,-1,-1,-1,-1,-1,-1,-1,-1,-1,-1,-1,-1,-1,-1,-1,-1],"split_conditions":[1E0,3E0,7E0,7.241266E-1,2.345E1,3E0,2E0,2E0,-3.493466E-1,6.110632E-1,-2.0966442E-1,2.625E1,4.71E1,1.55E1,1.11333E1,-2.9906502E-1,3.1E1,1.3E1,5.7E1,1.35E1,5.58904E-1,8.0292E0,1.78E1,5.3E1,1E0,2.97E1,1E0,2.1694231E-1,-2.9906502E-1,3.911461E-1,-1.5675834E-1,1.878335E-1,-1.4421208E-1,4.0108398E-1,-1.1713186E-3,2.3559172E-1,-2.0966442E-1,8.366905E-2,-1.9367547E-1,1.6283082E-2,-1.2173548E-1,-2.3263665E-1,-3.5293573E-1],"split_indices":[1,0,2,0,5,3,0,6,0,0,0,5,5,5,5,0,5,2,5,5,0,5,5,2,6,5,6,0,0,0,0,0,0,0,0,0,0,0,0,0,0,0,0],"split_type":[0,0,0,0,0,0,0,0,0,0,0,0,0,0,0,0,0,0,0,0,0,0,0,0,0,0,0,0,0,0,0,0,0,0,0,0,0,0,0,0,0,0,0],"sum_hessian":[1.6712358E2,5.7507412E1,1.0961617E2,3.0514137E1,2.6993275E1,5.163931E0,1.0445224E2,2.2064068E1,4.929207E0,3.2861378E0,1.8777931E0,2.1359896E1,8.309235E1,9.154242E0,1.2909827E1,1.6430689E0,1.9716827E1,8.004093E1,3.0514138E0,6.8069997E0,2.3472414E0,7.7458963E0,5.163931E0,6.5722756E0,1.3144551E1,2.3472414E0,7.769369E1,1.4083447E0,1.6430689E0,5.398655E0,1.4083447E0,3.7555861E0,3.9903102E0,3.2861378E0,1.8777931E0,4.694483E0,1.8777931E0,5.163931E0,7.9806204E0,1.1736207E0,1.1736207E0,9.388966E0,6.8304726E1],"tree_param":{"num_deleted":"0","num_feature":"7","num_nodes":"43","size_leaf_vector":"1"}},{"base_weights":[-1.2786972E-2,1.0364894E0,-6.311122E-1,4.7929057E-1,3.3775678E-1,7.9929864E-1,-7.1697015E-1,6.230476E-1,-2.9287755E-1,4.4287387E-1,-1.767282E-1,-1.5767711E-1,-8.6948824E-1,6.9651747E-1,-1.2792991E-1,-2.6022616E-1,-6.351044E-2,-8.947503E-1,-1.8551071E-1,4.9673083E-1,1.0584933E0,2.2269896E-1,-2.1803823E-1,-1.9395487E-1,-9.149623E-1,1.7359492E-1,-2.6022616E-1,2.6617125E-1,-2.5403729E-2,3.6989388E-1,9.5123865E-2,1.694361E-1,-1.767282E-1,-2.3876315E-1,2.4904627E-2,1.3611069E-2,-1.04187645E-1,-2.4722505E-1,-3.3158413E-1],"categories":[],"categories_nodes":[],"categories_segments":[],"categories_sizes":[],"default_left":[0,0,0,0,0,0,0,0,0,0,0,0,0,0,0,0,0,0,0,0,0,0,0,0,0,0,0,0,0,0,0,0,0,0,0,0,0,0,0],"id":1,"left_children":[1,3,5,-1,7,9,11,13,-1,-1,-1,15,17,19,-1,-1,21,23,25,27,29,31,33,35,37,-1,-1,-1,-1,-1,-1,-1,-1,-1,-1,-1,-1,-1,-1],"loss_changes":[1.0530748E2,2.305957E1,1.3114197E1,0E0,1.1133162E1,6.7486544E0,8.125389E0,2.1227016E0,0E0,0E0,0E0,1.4136401E0,1.1452103E0,1.1019764E0,0E0,0E0,9.5435846E-1,8.554306E-1,2.5677814E0,3.7958698E0,5.302315E-1,2.4642227E0,2.467619E0,1.3734269E-1,3.103752E-1,0E0,0E0,0E0,0E0,0E0,0E0,0E0,0E0,0E0,0E0,0E0,0E0,0E0,0E0],"parents":[2147483647,0,0,1,1,2,2,4,4,5,5,6,6,7,7,11,11,12,12,13,13,16,16,17,17,18,18,19,19,20,20,21,21,22,22,23,23,24,24],"right_children":[2,4,6,-1,8,10,12,14,-1,-1,-1,16,18,20,-1,-1,22,24,26,28,30,32,34,36,38,-1,-1,-1,-1,-1,-1,-1,-1,-1,-1,-1,-1,-1,-1],"split_conditions":[1E0,3E0,7E0,4.7929057E-1,2.345E1,3E0,2E0,3.65E1,-2.9287755E-1,4.4287387E-1,-1.767282E-1,2.625E1,4.71E1,1.55E1,-1.2792991E-1,-2.6022616E-1,3.1E1,1.3E1,5.7E1,8.05E0,2E0,5.3E1,5.25542E1,2.97E1,3.25E1,1.7359492E-1,-2.6022616E-1,2.6617125E-1,-2.5403729E-2,3.6989388E-1,9.5123865E-2,1.694361E-1,-1.767282E-1,-2.3876315E-1,2.4904627E-2,1.3611069E-2,-1.04187645E-1,-2.4722505E-1,-3.3158413E-1],"split_indices":[1,0,2,0,5,3,0,2,0,0,0,5,5,5,0,0,5,2,5,5,3,2,5,5,2,0,0,0,0,0,0,0,0,0,0,0,0,0,0],"split_type":[0,0,0,0,0,0,0,0,0,0,0,0,0,0,0,0,0,0,0,0,0,0,0,0,0,0,0,0,0,0,0,0,0,0,0,0,0,0,0],"sum_hessian":[1.603044E2,5.9188057E1,1.0111634E2,3.21124E1,2.7075659E1,5.255135E0,9.5861206E1,2.2677834E1,4.3978257E0,3.4901452E0,1.7649897E0,2.0975739E1,7.488547E1,2.1508436E1,1.1693962E0,1.4951444E0,1.9480595E1,7.192098E1,2.9644873E0,1.5387715E1,6.120722E0,6.675457E0,1.2805138E1,2.313198E0,6.960778E1,1.469343E0,1.4951444E0,8.890416E0,6.4972982E0,4.4179726E0,1.7027489E0,4.910467E0,1.7649897E0,3.8232317E0,8.981906E0,1.1782807E0,1.1349174E0,5.071899E1,1.8888792E1],"tree_param":{"num_deleted":"0","num_feature":"7","num_nodes":"39","size_leaf_vector":"1"}},{"base_weights":[-1.5095684E-2,7.9860777E-1,-5.0726914E-1,1.2795274E0,2.4789174E-1,6.438725E-1,-5.784926E-1,9.3969665E-2,3.9177907E-1,4.5977202E-1,-8.388887E-1,3.6186105E-1,-1.5020525E-1,-1.3858356E-1,-7.0977867E-1,7.562063E-1,2.086061E-1,-6.38098E-2,-2.8969583E-1,-2.307017E-1,-5.8786996E-2,-6.190558E-1,-9.405005E-1,4.6717286E-1,3.6472863E-1,2.5723616E-3,6.004591E-1,-1.8481793E-1,2.3466269E-2,-6.9863296E-1,1.9497965E-1,-2.934989E-1,-5.7909403E-2,2.2675224E-1,-9.938816E-2,2.2261624E-1,-5.4052565E-2,2.566626E-1,-2.7487898E-2,3.1769592E-1,-3.756077E-2,-6.52543E-2,-2.3214032E-1],"categories":[],"categories_nodes":[],"categories_segments":[],"categories_sizes":[],"default_left":[0,0,0,0,0,0,0,0,0,0,0,0,0,0,0,0,0,0,0,0,0,0,0,0,0,0,0,0,0,0,0,0,0,0,0,0,0,0,0,0,0,0,0],"id":2,"left_children":[1,3,5,7,9,11,13,-1,-1,15,17,-1,-1,19,21,23,25,-1,-1,-1,27,29,31,33,-1,35,37,-1,39,41,-1,-1,-1,-1,-1,-1,-1,-1,-1,-1,-1,-1,-1],"loss_changes":[5.9860737E1,1.4604897E1,8.007067E0,3.5215378E-1,6.7192397E0,4.4006147E0,4.9966393E0,0E0,0E0,1.604104E0,1.7892313E-1,0E0,0E0,1.0373322E0,8.348541E-1,8.2309294E-1,1.1441517E0,0E0,0E0,0E0,9.3965364E-1,5.6565247E0,2.9697514E-1,2.1066127E0,0E0,1.5262922E0,9.4094336E-1,0E0,2.9885929E0,1.6023254E0,0E0,0E0,0E0,0E0,0E0,0E0,0E0,0E0,0E0,0E0,0E0,0E0,0E0],"parents":[2147483647,0,0,1,1,2,2,3,3,4,4,5,5,6,6,9,9,10,10,13,13,14,14,15,15,16,16,20,20,21,21,22,22,23,23,25,25,26,26,28,28,29,29],"right_children":[2,4,6,8,10,12,14,-1,-1,16,18,-1,-1,20,22,24,26,-1,-1,-1,28,30,32,34,-1,36,38,-1,40,42,-1,-1,-1,-1,-1,-1,-1,-1,-1,-1,-1,-1,-1],"split_conditions":[1E0,3E0,7E0,5E0,2.345E1,3E0,2E0,9.3969665E-2,3.9177907E-1,2E0,1E1,3.6186105E-1,-1.5020525E-1,2.625E1,3.25E1,1.55E1,1E0,-6.38098E-2,-2.8969583E-1,-2.307017E-1,2.45E1,3.2E1,6E1,8.05E0,3.6472863E-1,7.775E0,2.8E1,-1.8481793E-1,2.8E1,1E0,1.9497965E-1,-2.934989E-1,-5.7909403E-2,2.2675224E-1,-9.938816E-2,2.2261624E-1,-5.4052565E-2,2.566626E-1,-2.7487898E-2,3.1769592E-1,-3.756077E-2,-6.52543E-2,-2.3214032E-1],"split_indices":[1,0,2,2,5,3,0,0,0,6,2,0,0,5,2,5,4,0,0,0,2,2,2,5,0,5,2,0,2,6,0,0,0,0,0,0,0,0,0,0,0,0,0],"split_type":[0,0,0,0,0,0,0,0,0,0,0,0,0,0,0,0,0,0,0,0,0,0,0,0,0,0,0,0,0,0,0,0,0,0,0,0,0,0,0,0,0,0,0],"sum_hessian":[1.4745972E2,5.5341602E1,9.21181E1,2.8836435E1,2.6505169E1,4.8989615E0,8.721915E1,1.1090937E0,2.772734E1,2.2663586E1,3.841584E0,3.248891E0,1.6500704E0,2.0519308E1,6.669984E1,9.472751E0,1.3190834E1,1.0975955E0,2.7439885E0,1.3350267E0,1.918428E1,5.0518444E1,1.6181393E1,7.053249E0,2.4195018E0,9.304929E0,3.8859055E0,1.6327144E0,1.7551567E1,4.7960346E1,2.558097E0,1.510793E1,1.0734632E0,5.219602E0,1.8336465E0,1.2373785E0,8.06755E0,2.6668146E0,1.2190909E0,1.4347823E0,1.6116785E1,7.006762E0,4.0953587E1],"tree_param":{"num_deleted":"0","num_feature":"7","num_nodes":"43","size_leaf_vector":"1"}},{"base_weights":[-7.7536134E-3,6.5000856E-1,-4.031E-1,1.0935404E0,1.9870408E-1,5.41648E-1,-4.613374E-1,8.078498E-2,3.355797E-1,3.680314E-1,-7.423758E-1,3.1177014E-1,-1.2825549E-1,-5.456676E-1,3.660423E-2,2.0171046E-1,7.008884E-1,-5.4913756E-2,-2.597206E-1,-5.0115603E-1,-3.2129282E-1,2.4454184E-1,-2.715608E-1,3.5717854E-1,-2.7301013E-1,2.6713452E-1,9.800637E-3,-5.729732E-1,4.1413325E-1,-2.850169E-1,3.9480835E-2,5.490901E-2,3.58708E-1,3.8470864E-2,-1.7648013E-1,2.3014317E-1,-1.1782666E-2,8.761042E-2,-1.3006555E-1],"categories":[],"categories_nodes":[],"categories_segments":[],"categories_sizes":[],"default_left":[0,0,0,0,0,0,0,0,0,0,0,0,0,0,0,0,0,0,0,0,0,0,0,0,0,0,0,0,0,0,0,0,0,0,0,0,0,0,0],"id":3,"left_children":[1,3,5,7,9,11,13,-1,-1,15,17,-1,-1,19,21,23,25,-1,-1,27,-1,-1,29,31,-1,-1,-1,33,35,-1,37,-1,-1,-1,-1,-1,-1,-1,-1],"loss_changes":[3.5471622E1,1.0033838E1,4.9367857E0,2.276783E-1,4.5128927E0,3.0513983E0,3.4120407E0,0E0,0E0,1.1439612E0,1.4433908E-1,0E0,0E0,1.0800056E0,3.2530615E0,3.243573E0,8.9959955E-1,0E0,0E0,4.5508327E0,0E0,0E0,2.1063638E0,2.0492547E0,0E0,0E0,0E0,7.324772E-1,8.87207E-1,0E0,1.0443288E0,0E0,0E0,0E0,0E0,0E0,0E0,0E0,0E0],"parents":[2147483647,0,0,1,1,2,2,3,3,4,4,5,5,6,6,9,9,10,10,13,13,14,14,15,15,16,16,19,19,22,22,23,23,27,27,28,28,30,30],"right_children":[2,4,6,8,10,12,14,-1,-1,16,18,-1,-1,20,22,24,26,-1,-1,28,-1,-1,30,32,-1,-1,-1,34,36,-1,38,-1,-1,-1,-1,-1,-1,-1,-1],"split_conditions":[1E0,3E0,7E0,5E0,2.345E1,3E0,5.25542E1,8.078498E-2,3.355797E-1,1.5E1,1E1,3.1177014E-1,-1.2825549E-1,3.70042E1,5.79792E1,1.35E1,2.0575E1,-5.4913756E-2,-2.597206E-1,3E1,-3.2129282E-1,2.4454184E-1,7.525E1,1.11333E1,-2.7301013E-1,2.6713452E-1,9.800637E-3,1.3E1,3.1E1,-2.850169E-1,1.345E2,5.490901E-2,3.58708E-1,3.8470864E-2,-1.7648013E-1,2.3014317E-1,-1.1782666E-2,8.761042E-2,-1.3006555E-1],"split_indices":[1,0,2,2,5,3,5,0,0,5,2,0,0,5,5,5,5,0,0,5,0,0,5,5,0,0,0,2,5,0,5,0,0,0,0,0,0,0,0],"split_type":[0,0,0,0,0,0,0,0,0,0,0,0,0,0,0,0,0,0,0,0,0,0,0,0,0,0,0,0,0,0,0,0,0,0,0,0,0,0,0],"sum_hessian":[1.3439868E2,5.0212654E1,8.4186035E1,2.460669E1,2.5605965E1,4.406207E0,7.977982E1,1.0725678E0,2.353412E1,2.2217352E1,3.3886137E0,2.8636603E0,1.5425467E0,6.814338E1,1.1636446E1,1.5885654E1,6.331697E0,1.0611308E0,2.3274832E0,6.4621735E1,3.521645E0,2.8333216E0,8.803124E0,1.4532174E1,1.3534799E0,4.673386E0,1.6583107E0,6.026695E1,4.3547845E0,2.1213183E0,6.681806E0,1.3041835E1,1.4903392E0,1.1287749E0,5.9138176E1,2.0594275E0,2.295357E0,4.60553E0,2.0762765E0],"tree_param":{"num_deleted":"0","num_feature":"7","num_nodes":"39","size_leaf_vector":"1"}},{"base_weights":[-2.5858416E-3,5.266196E-1,-3.161717E-1,9.5943964E-1,1.4556108E-1,3.335505E-1,-3.7421817E-1,3.0696946E-1,3.761207E-1,2.8014362E-1,-6.620354E-1,3.3201778E-1,-6.931986E-1,-6.3304536E-2,-4.886361E-1,2.2685276E-1,-7.5950526E-2,2.4035743E-1,1.5686542E-1,-4.7283463E-2,-2.352226E-1,-2.4732675E-1,-6.031384E-2,-1.9008425E-1,7.310975E-5,-3.9591998E-1,-7.331187E-1,-1.3360065E-1,4.6369952E-1,-1.5920746E-1,7.534686E-2,-4.8915642E-1,4.9954155E-1,-2.301217E-1,-6.3259475E-2,9.220091E-2,-1.0457856E-1,3.011096E-1,7.538247E-2,2.324552E-1,-1.0287517E-2,-5.6390677E-2,-1.8550976E-1,1.8373775E-1,5.416714E-2],"categories":[],"categories_nodes":[],"categories_segments":[],"categories_sizes":[],"default_left":[0,0,0,0,0,0,0,0,0,0,0,0,0,0,0,0,0,0,0,0,0,0,0,0,0,0,0,0,0,0,0,0,0,0,0,0,0,0,0,0,0,0,0,0,0],"id":4,"left_children":[1,3,5,7,9,11,13,-1,15,17,19,-1,21,23,25,-1,-1,-1,27,-1,-1,-1,-1,-1,29,31,33,35,37,-1,39,41,43,-1,-1,-1,-1,-1,-1,-1,-1,-1,-1,-1,-1],"loss_changes":[2.071149E1,7.51954E0,3.0801764E0,4.1755676E-1,2.9977932E0,6.28883E0,2.5448685E0,0E0,1.0780219E0,1.3441038E0,1.2225294E-1,0E0,6.692064E-2,7.456019E-1,9.0612984E-1,0E0,0E0,0E0,1.8219242E0,0E0,0E0,0E0,0E0,0E0,8.2161045E-1,3.62081E0,7.476854E-2,1.1423923E0,8.750124E-1,0E0,1.4077668E0,1.3288488E0,4.460311E-2,0E0,0E0,0E0,0E0,0E0,0E0,0E0,0E0,0E0,0E0,0E0,0E0],"parents":[2147483647,0,0,1,1,2,2,3,3,4,4,5,5,6,6,8,8,9,9,10,10,12,12,13,13,14,14,18,18,24,24,25,25,26,26,27,27,28,28,30,30,31,31,32,32],"right_children":[2,4,6,8,10,12,14,-1,16,18,20,-1,22,24,26,-1,-1,-1,28,-1,-1,-1,-1,-1,30,32,34,36,38,-1,40,42,44,-1,-1,-1,-1,-1,-1,-1,-1,-1,-1,-1,-1],"split_conditions":[1E0,3E0,1.3E1,1.5155E2,2.345E1,3E0,2E0,3.0696946E-1,1E0,7.7417E0,1E1,3.3201778E-1,2E0,2.625E1,3.25E1,2.2685276E-1,-7.5950526E-2,2.4035743E-1,1.11333E1,-4.7283463E-2,-2.352226E-1,-2.4732675E-1,-6.031384E-2,-1.9008425E-1,2.45E1,3.1E1,5.8E1,2E0,1.35E1,-1.5920746E-1,2.8E1,7.8E0,8.1125E0,-2.301217E-1,-6.3259475E-2,9.220091E-2,-1.0457856E-1,3.011096E-1,7.538247E-2,2.324552E-1,-1.0287517E-2,-5.6390677E-2,-1.8550976E-1,1.8373775E-1,5.416714E-2],"split_indices":[1,0,2,5,5,3,0,0,3,5,2,0,4,5,2,0,0,0,5,0,0,0,0,0,2,2,2,6,5,0,2,5,5,0,0,0,0,0,0,0,0,0,0,0,0],"split_type":[0,0,0,0,0,0,0,0,0,0,0,0,0,0,0,0,0,0,0,0,0,0,0,0,0,0,0,0,0,0,0,0,0,0,0,0,0,0,0,0,0,0,0,0,0],"sum_hessian":[1.2280127E2,4.5439137E1,7.736214E1,2.0563988E1,2.4875149E1,5.955468E0,7.140667E1,1.785699E1,2.7069967E0,2.188176E1,2.9933884E0,3.3528042E0,2.6026638E0,1.962687E1,5.17798E1,1.5620011E0,1.1449955E0,3.1344864E0,1.8747274E1,1.0295315E0,1.9638569E0,1.5217733E0,1.0808904E0,1.0630926E0,1.8563776E1,3.9441616E1,1.2338184E1,9.920533E0,8.82674E0,1.55427E0,1.7009506E1,3.6133133E1,3.308483E0,1.1144845E1,1.1933389E0,3.1108716E0,6.8096614E0,1.4403358E0,7.3864045E0,1.4826639E0,1.5526842E1,1.1584469E1,2.4548664E1,1.7640107E0,1.5444722E0],"tree_param":{"num_deleted":"0","num_feature":"7","num_nodes":"45","size_leaf_vector":"1"}},{"base_weights":[1.9275091E-3,4.3666676E-1,-2.4982002E-1,8.508879E-1,1.1808466E-1,4.131702E-1,-2.8748113E-1,9.1559327E-1,3.253756E-1,2.2927411E-1,-5.9290594E-1,2.42883E-1,-8.4947236E-2,-3.5129932E-1,4.014151E-2,5.189899E-1,1.000298E0,2.1939723E-1,-1.0562185E-1,1.9536847E-1,1.3125286E-1,-2.1885641E-1,-3.9253265E-2,-3.0382E-1,-2.8132164E-1,1.9383825E-1,-2.1523215E-1,-6.560567E-2,2.536702E-1,3.214007E-1,9.510082E-2,-6.683394E-2,4.862472E-1,-3.64959E-1,3.408496E-1,-6.178498E-1,2.1117552E-1,3.8009536E-2,-1.9769278E-1,2.580958E-1,2.9782386E-2,-5.6381606E-2,-1.3315436E-1,1.8237707E-1,-5.3224796E-3,5.7578478E-2,-2.9717383E-1,1.9221821E-1,-1.0301273E-1],"categories":[],"categories_nodes":[],"categories_segments":[],"categories_sizes":[],"default_left":[0,0,0,0,0,0,0,0,0,0,0,0,0,0,0,0,0,0,0,0,0,0,0,0,0,0,0,0,0,0,0,0,0,0,0,0,0,0,0,0,0,0,0,0,0,0,0,0,0],"id":5,"left_children":[1,3,5,7,9,11,13,15,17,19,21,-1,-1,23,25,27,29,-1,-1,-1,31,-1,-1,33,-1,-1,35,-1,-1,-1,-1,37,39,41,43,45,47,-1,-1,-1,-1,-1,-1,-1,-1,-1,-1,-1,-1],"loss_changes":[1.2589293E1,5.4659595E0,1.9377799E0,3.201723E-1,2.1126647E0,1.4234858E0,1.4677382E0,6.0358047E-3,1.2321196E0,8.3868885E-1,1.3560879E-1,0E0,0E0,1.3381667E0,2.032051E0,1.3483871E0,2.33325E-1,0E0,0E0,0E0,1.395606E0,0E0,0E0,2.3081698E0,0E0,0E0,1.736676E0,0E0,0E0,0E0,0E0,1.6100643E0,9.3705964E-1,6.300378E-1,5.199432E-1,1.719448E0,1.4798824E0,0E0,0E0,0E0,0E0,0E0,0E0,0E0,0E0,0E0,0E0,0E0,0E0],"parents":[2147483647,0,0,1,1,2,2,3,3,4,4,5,5,6,6,7,7,8,8,9,9,10,10,13,13,14,14,15,15,16,16,20,20,23,23,26,26,31,31,32,32,33,33,34,34,35,35,36,36],"right_children":[2,4,6,8,10,12,14,16,18,20,22,-1,-1,24,26,28,30,-1,-1,-1,32,-1,-1,34,-1,-1,36,-1,-1,-1,-1,38,40,42,44,46,48,-1,-1,-1,-1,-1,-1,-1,-1,-1,-1,-1,-1],"split_conditions":[1E0,3E0,7E0,1.5155E2,2.345E1,3E0,5.25542E1,2.1075E1,2E0,7.7417E0,4E0,2.42883E-1,-8.4947236E-2,3.70042E1,5.79792E1,2.8E1,5E1,2.1939723E-1,-1.0562185E-1,1.9536847E-1,1.5E1,-2.1885641E-1,-3.9253265E-2,3E1,-2.8132164E-1,1.9383825E-1,8.65E1,-6.560567E-2,2.536702E-1,3.214007E-1,9.510082E-2,1E0,2E0,2.8E1,3.1E1,1E0,1.345E2,3.8009536E-2,-1.9769278E-1,2.580958E-1,2.9782386E-2,-5.6381606E-2,-1.3315436E-1,1.8237707E-1,-5.3224796E-3,5.7578478E-2,-2.9717383E-1,1.9221821E-1,-1.0301273E-1],"split_indices":[1,0,2,5,5,3,5,5,4,5,3,0,0,5,5,2,2,0,0,0,5,0,0,5,0,0,5,0,0,0,0,3,6,2,5,6,5,0,0,0,0,0,0,0,0,0,0,0,0],"split_type":[0,0,0,0,0,0,0,0,0,0,0,0,0,0,0,0,0,0,0,0,0,0,0,0,0,0,0,0,0,0,0,0,0,0,0,0,0,0,0,0,0,0,0,0,0,0,0,0,0],"sum_hessian":[1.1303222E2,4.1181656E1,7.185056E1,1.7177097E1,2.4004559E1,3.3261373E0,6.852443E1,1.4633069E1,2.5440285E0,2.1344149E1,2.6604116E0,2.0157983E0,1.3103389E0,5.7292126E1,1.1232302E1,3.8295343E0,1.08035345E1,1.5410535E0,1.0029751E0,2.9597044E0,1.8384443E1,1.6065668E0,1.0538448E0,5.440543E1,2.8866954E0,2.876476E0,8.355825E0,1.2765114E0,2.5530229E0,9.271721E0,1.5318136E0,1.2321038E1,6.063405E0,5.008899E1,4.3164415E0,4.0668793E0,4.2889466E0,9.878453E0,2.4425852E0,2.4611237E0,3.6022813E0,1.6483543E1,3.3605446E1,2.0754E0,2.2410417E0,1.4347878E0,2.6320913E0,2.3292933E0,1.9596534E0],"tree_param":{"num_deleted":"0","num_feature":"7","num_nodes":"49","size_leaf_vector":"1"}},{"base_weights":[9.018877E-3,3.6286542E-1,-1.9201747E-1,7.6517695E-1,8.8371895E-2,-4.311314E-1,-9.1734506E-2,4.396022E-1,2.7589095E-1,2.0676036E-1,-4.112474E-1,-3.0328048E-2,-6.393166E-1,3.3833182E-1,-1.5718186E-1,7.301202E-1,-1.3127616E-1,7.9898335E-2,6.023735E-1,2.209066E-2,-5.733863E-1,-4.4702145E-1,2.041621E-1,-2.6217797E-1,-3.2085615E-1,-1.04393765E-1,-6.9250095E-1,4.3011118E-2,2.5559598E-1,-9.2857435E-2,3.547492E-2,2.1996696E-1,-5.4055864E-1,7.0254095E-2,2.6077193E-1,-2.7797176E-2,-2.1820496E-1,9.056693E-2,-2.0959957E-1,3.8559414E-2,-6.226019E-1,3.0664885E-1,-1.8599823E-1,-7.2901875E-2,-2.4087663E-1,1.733277E-4,1.1570231E-1,1.2389145E-2,-2.4896602E-1,9.164469E-2,-8.791846E-2,-2.269289E-1,-4.3340378E-2,8.797198E-3,-1.0300028E-1],"categories":[],"categories_nodes":[],"categories_segments":[],"categories_sizes":[],"default_left":[0,0,0,0,0,0,0,0,0,0,0,0,0,0,0,0,0,0,0,0,0,0,0,0,0,0,0,0,0,0,0,0,0,0,0,0,0,0,0,0,0,0,0,0,0,0,0,0,0,0,0,0,0,0,0],"id":6,"left_children":[1,3,5,7,9,11,13,15,-1,17,19,21,23,-1,25,27,29,31,33,-1,35,37,-1,-1,39,41,43,-1,-1,-1,-1,45,47,-1,-1,-1,-1,-1,-1,49,51,-1,53,-1,-1,-1,-1,-1,-1,-1,-1,-1,-1,-1,-1],"loss_changes":[7.626175E0,4.2206926E0,1.6004705E0,3.8116074E-1,1.5172373E0,1.6442914E0,4.1244864E0,1.2470752E0,0E0,9.677065E-1,4.3319166E-1,2.6341774E0,6.9629574E-1,0E0,1.2788653E0,2.1769166E-1,1.7842588E-1,1.5510224E0,2.6431417E-1,0E0,2.168678E-1,1.2592263E0,0E0,0E0,7.967767E-1,4.2994833E0,9.0914965E-3,0E0,0E0,0E0,0E0,5.143604E-1,5.938903E-1,0E0,0E0,0E0,0E0,0E0,0E0,4.6073467E-1,1.4230669E-1,0E0,1.4507889E0,0E0,0E0,0E0,0E0,0E0,0E0,0E0,0E0,0E0,0E0,0E0,0E0],"parents":[2147483647,0,0,1,1,2,2,3,3,4,4,5,5,6,6,7,7,9,9,10,10,11,11,12,12,14,14,15,15,16,16,17,17,18,18,20,20,21,21,24,24,25,25,26,26,31,31,32,32,39,39,40,40,42,42],"right_children":[2,4,6,8,10,12,14,16,-1,18,20,22,24,-1,26,28,30,32,34,-1,36,38,-1,-1,40,42,44,-1,-1,-1,-1,46,48,-1,-1,-1,-1,-1,-1,50,52,-1,54,-1,-1,-1,-1,-1,-1,-1,-1,-1,-1,-1,-1],"split_conditions":[1E0,3E0,7.925E0,2.8E1,2.0575E1,2.8E1,8.0292E0,2.4E1,2.7589095E-1,1.55E1,7E0,2.4E1,7.7375E0,3.3833182E-1,3E0,8E0,2.625E1,1E0,1E0,2.209066E-2,2.345E1,2E0,2.041621E-1,-2.6217797E-1,7.8792E0,1E1,5E0,4.3011118E-2,2.5559598E-1,-9.2857435E-2,3.547492E-2,2.6E1,2.2E1,7.0254095E-2,2.6077193E-1,-2.7797176E-2,-2.1820496E-1,9.056693E-2,-2.0959957E-1,3E1,2.85E1,3.0664885E-1,2E0,-7.2901875E-2,-2.4087663E-1,1.733277E-4,1.1570231E-1,1.2389145E-2,-2.4896602E-1,9.164469E-2,-8.791846E-2,-2.269289E-1,-4.3340378E-2,8.797198E-3,-1.0300028E-1],"split_indices":[1,0,5,2,5,2,5,2,0,5,2,2,5,0,3,2,5,3,4,0,5,6,0,0,5,2,2,0,0,0,0,2,2,0,0,0,0,0,0,2,2,0,0,0,0,0,0,0,0,0,0,0,0,0,0],"split_type":[0,0,0,0,0,0,0,0,0,0,0,0,0,0,0,0,0,0,0,0,0,0,0,0,0,0,0,0,0,0,0,0,0,0,0,0,0,0,0,0,0,0,0,0,0,0,0,0,0,0,0,0,0,0,0],"sum_hessian":[1.0522606E2,3.7832188E1,6.739387E1,1.4618694E1,2.3213491E1,1.8938326E1,4.8455544E1,5.941363E0,8.677332E0,1.9240482E1,3.9730096E0,6.865799E0,1.2072527E1,1.6412737E0,4.681427E1,3.7526903E0,2.1886725E0,1.547882E1,3.7616625E0,1.1323929E0,2.840617E0,4.5625224E0,2.3032763E0,5.947084E0,6.1254435E0,4.37E1,3.1142678E0,1.0196824E0,2.733008E0,1.13642E0,1.0522525E0,1.3154629E1,2.3241913E0,2.3697112E0,1.3919513E0,1.0776429E0,1.7629739E0,1.0972753E0,3.4652474E0,3.1936426E0,2.9318008E0,2.1731849E0,4.1526817E1,1.2453809E0,1.8688871E0,6.0922494E0,7.0623794E0,1.0565907E0,1.2676005E0,1.813096E0,1.3805466E0,1.8358958E0,1.095905E0,1.7876099E1,2.3650719E1],"tree_param":{"num_deleted":"0","num_feature":"7","num_nodes":"55","size_leaf_vector":"1"}},{"base_weights":[8.585008E-3,2.955628E-1,-1.5017977E-1,6.8142575E-1,6.213879E-2,-3.625104E-1,-6.4344354E-2,7.620588E-1,4.7341328E-2,1.5874982E-1,-3.57768E-1,-2.1650862E-2,-5.566399E-1,2.3633137E-1,-1.18939504E-1,3.6398885E-1,8.62805E-1,3.4876846E-2,4.8580173E-1,1.8490838E-2,-5.0888294E-1,2.980812E-1,-2.2074874E-1,-2.3517744E-1,-2.78671E-1,-7.1970515E-2,-6.197202E-1,-5.362783E-2,2.08905E-1,2.8785995E-1,4.2253967E-2,3.298266E-1,-2.1346144E-1,2.3865128E-1,-4.6468712E-2,-2.337672E-2,-1.9964533E-1,-1.9845954E-1,6.883703E-1,2.5558494E-2,-5.578529E-1,2.7673104E-1,-1.3928866E-1,-6.258306E-2,-2.1839581E-1,-7.155489E-2,1.74944E-1,-1.6254985E-1,2.9332688E-2,2.7114943E-1,7.1445085E-2,7.042872E-2,-7.546403E-2,-2.0698771E-1,-3.7220296E-2,3.8937133E-2,-6.571809E-2],"categories":[],"categories_nodes":[],"categories_segments":[],"categories_sizes":[],"default_left":[0,0,0,0,0,0,0,0,0,0,0,0,0,0,0,0,0,0,0,0,0,0,0,0,0,0,0,0,0,0,0,0,0,0,0,0,0,0,0,0,0,0,0,0,0,0,0,0,0,0,0,0,0,0,0,0,0],"id":7,"left_children":[1,3,5,7,9,11,13,15,-1,17,19,21,23,-1,25,27,29,31,33,-1,35,37,-1,-1,39,41,43,-1,-1,-1,-1,45,47,-1,-1,-1,-1,-1,49,51,53,-1,55,-1,-1,-1,-1,-1,-1,-1,-1,-1,-1,-1,-1,-1,-1],"loss_changes":[4.610907E0,3.203377E0,1.1648108E0,4.489851E-1,1.0122972E0,1.2154989E0,2.3099606E0,1.4402056E-1,0E0,7.868516E-1,3.3005607E-1,1.9940581E0,5.257268E-1,0E0,1.0289047E0,8.526409E-1,4.504404E-1,1.2033558E0,1.1893623E0,0E0,1.8925267E-1,2.732611E0,0E0,0E0,5.960915E-1,2.9974585E0,1.6476989E-2,0E0,0E0,0E0,0E0,1.2135758E0,9.732341E-1,0E0,0E0,0E0,0E0,0E0,2.515781E-1,3.0452216E-1,1.216166E-1,0E0,9.0869033E-1,0E0,0E0,0E0,0E0,0E0,0E0,0E0,0E0,0E0,0E0,0E0,0E0,0E0,0E0],"parents":[2147483647,0,0,1,1,2,2,3,3,4,4,5,5,6,6,7,7,9,9,10,10,11,11,12,12,14,14,15,15,16,16,17,17,18,18,20,20,21,21,24,24,25,25,26,26,31,31,32,32,38,38,39,39,40,40,42,42],"right_children":[2,4,6,8,10,12,14,16,-1,18,20,22,24,-1,26,28,30,32,34,-1,36,38,-1,-1,40,42,44,-1,-1,-1,-1,46,48,-1,-1,-1,-1,-1,50,52,54,-1,56,-1,-1,-1,-1,-1,-1,-1,-1,-1,-1,-1,-1,-1,-1],"split_conditions":[1E0,3E0,7.925E0,1.5155E2,2.0575E1,2.8E1,8.0292E0,2.1075E1,4.7341328E-2,1E0,7E0,7.8E0,7.7375E0,2.3633137E-1,3E0,2.8E1,5E1,7.8875E0,2.8E1,1.8490838E-2,2.345E1,2E1,-2.2074874E-1,-2.3517744E-1,7.8792E0,1E1,5E0,-5.362783E-2,2.08905E-1,2.8785995E-1,4.2253967E-2,2.2E1,2.7E1,2.3865128E-1,-4.6468712E-2,-2.337672E-2,-1.9964533E-1,-1.9845954E-1,7.25E0,3E1,2.85E1,2.7673104E-1,1E0,-6.258306E-2,-2.1839581E-1,-7.155489E-2,1.74944E-1,-1.6254985E-1,2.9332688E-2,2.7114943E-1,7.1445085E-2,7.042872E-2,-7.546403E-2,-2.0698771E-1,-3.7220296E-2,3.8937133E-2,-6.571809E-2],"split_indices":[1,0,5,5,5,2,5,5,0,4,2,5,5,0,3,2,2,5,2,0,5,2,0,0,5,2,2,0,0,0,0,2,2,0,0,0,0,0,5,2,2,0,6,0,0,0,0,0,0,0,0,0,0,0,0,0,0],"split_type":[0,0,0,0,0,0,0,0,0,0,0,0,0,0,0,0,0,0,0,0,0,0,0,0,0,0,0,0,0,0,0,0,0,0,0,0,0,0,0,0,0,0,0,0,0,0,0,0,0,0,0,0,0,0,0,0,0],"sum_hessian":[9.922656E1,3.503566E1,6.41909E1,1.2482361E1,2.2553299E1,1.755122E1,4.6639683E1,1.0422089E1,2.060272E0,1.8840473E1,3.7128255E0,6.772082E0,1.0779139E1,1.9996724E0,4.464001E1,3.036632E0,7.3854566E0,1.4467469E1,4.3730054E0,1.1402636E0,2.572562E0,5.0802965E0,1.6917856E0,4.928829E0,5.8503094E0,4.185782E1,2.7821927E0,1.3288169E0,1.707815E0,6.2226725E0,1.1627845E0,6.4631248E0,8.004344E0,2.7851079E0,1.5878973E0,1.0848061E0,1.4877559E0,1.2679007E0,3.8123956E0,3.2342942E0,2.616015E0,1.8485688E0,4.0009247E1,1.1900676E0,1.592125E0,2.0106091E0,4.4525156E0,3.5344324E0,4.4699116E0,1.8970126E0,1.915383E0,1.9300126E0,1.3042816E0,1.5526215E0,1.0633935E0,9.005526E0,3.1003723E1],"tree_param":{"num_deleted":"0","num_feature":"7","num_nodes":"57","size_leaf_vector":"1"}},{"base_weights":[7.2944956E-3,2.427826E-1,-1.1919819E-1,6.0697526E-1,4.3380868E-2,-3.7922117E-1,-6.1062705E-2,2.871662E-1,7.905351E-1,1.4413701E-1,-3.7591532E-2,-3.6578625E-2,-5.696053E-1,1.6008371E-1,-9.51357E-2,5.854033E-1,-1.755303E-1,2.6651204E-1,7.284392E-2,2.45778E-1,-1.6998391E-1,3.6278877E-1,-2.0298116E-1,-2.105015E-1,-4.936158E-2,-2.250529E-1,9.0594806E-2,3.561721E-2,2.1521592E-1,-1.1002775E-1,2.99334E-2,-5.2936405E-2,2.3111363E-1,-1.9108186E-2,-5.685581E-1,-5.7372622E-2,2.008812E-1,1.2808356E-1,-3.7518662E-1,2.1016721E-1,-7.093179E-2,6.982994E-2,-1.240933E-1,-7.580141E-2,1.7342803E-1,1.5479951E-2,-2.5338405E-1,1.6520187E-1,-9.1266386E-2,-2.7964208E-1,-6.36224E-2,-5.939972E-2,2.6121154E-1],"categories":[],"categories_nodes":[],"categories_segments":[],"categories_sizes":[],"default_left":[0,0,0,0,0,0,0,0,0,0,0,0,0,0,0,0,0,0,0,0,0,0,0,0,0,0,0,0,0,0,0,0,0,0,0,0,0,0,0,0,0,0,0,0,0,0,0,0,0,0,0,0,0],"id":8,"left_children":[1,3,5,7,9,11,13,15,17,-1,19,21,23,-1,25,27,29,-1,-1,31,33,35,-1,-1,-1,37,39,-1,-1,-1,-1,41,-1,43,45,-1,-1,47,49,-1,51,-1,-1,-1,-1,-1,-1,-1,-1,-1,-1,-1,-1],"loss_changes":[2.873639E0,2.4210768E0,9.261403E-1,4.684329E-1,8.269105E-1,7.15191E-1,1.1148543E0,9.1560864E-1,1.5705824E-1,0E0,7.999688E-1,1.5486947E0,2.6887727E-1,0E0,1.2393744E0,1.4965487E-1,1.9864321E-1,0E0,0E0,1.1133261E0,8.530067E-1,7.723886E-1,0E0,0E0,0E0,1.6392504E0,2.1685522E0,0E0,0E0,0E0,0E0,6.421432E-1,0E0,1.7439418E0,7.129489E-1,0E0,0E0,1.9393613E0,1.7385862E0,0E0,2.3154926E0,0E0,0E0,0E0,0E0,0E0,0E0,0E0,0E0,0E0,0E0,0E0,0E0],"parents":[2147483647,0,0,1,1,2,2,3,3,4,4,5,5,6,6,7,7,8,8,10,10,11,11,12,12,14,14,15,15,16,16,19,19,20,20,21,21,25,25,26,26,31,31,33,33,34,34,37,37,38,38,40,40],"right_children":[2,4,6,8,10,12,14,16,18,-1,20,22,24,-1,26,28,30,-1,-1,32,34,36,-1,-1,-1,38,40,-1,-1,-1,-1,42,-1,44,46,-1,-1,48,50,-1,52,-1,-1,-1,-1,-1,-1,-1,-1,-1,-1,-1,-1],"split_conditions":[1E0,3E0,7.775E0,2.8E1,7.7417E0,2.8E1,7.8E0,2.4E1,5E1,1.4413701E-1,2E0,7.25E0,7.7375E0,1.6008371E-1,3.1E1,1.45E1,2.1075E1,2.6651204E-1,7.284392E-2,1.55E1,2.0575E1,2.1E1,-2.0298116E-1,-2.105015E-1,-4.936158E-2,2.1E1,3.25E1,3.561721E-2,2.1521592E-1,-1.1002775E-1,2.99334E-2,8.05E0,2.3111363E-1,1E0,7E0,-5.7372622E-2,2.008812E-1,1.87875E1,2.5E1,2.1016721E-1,1.13275E2,6.982994E-2,-1.240933E-1,-7.580141E-2,1.7342803E-1,1.5479951E-2,-2.5338405E-1,1.6520187E-1,-9.1266386E-2,-2.7964208E-1,-6.36224E-2,-5.939972E-2,2.6121154E-1],"split_indices":[1,0,5,2,5,2,5,2,2,0,6,5,5,0,2,2,5,0,0,5,5,2,0,0,0,2,2,0,0,0,0,5,0,4,2,0,0,5,2,0,5,0,0,0,0,0,0,0,0,0,0,0,0],"split_type":[0,0,0,0,0,0,0,0,0,0,0,0,0,0,0,0,0,0,0,0,0,0,0,0,0,0,0,0,0,0,0,0,0,0,0,0,0,0,0,0,0,0,0,0,0,0,0,0,0,0,0,0,0],"sum_hessian":[9.449972E1,3.2701275E1,6.1798443E1,1.0846661E1,2.1854612E1,1.0282915E1,5.1515526E1,4.890524E0,5.956137E0,2.6448045E0,1.9209808E1,4.0986066E0,6.1843085E0,1.9972217E0,4.9518307E1,2.8124943E0,2.0780296E0,4.5257673E0,1.4303696E0,5.844322E0,1.3365486E1,2.790522E0,1.3080845E0,4.111556E0,2.0727527E0,2.9012527E1,2.0505777E1,1.0388303E0,1.773664E0,1.0302458E0,1.0477837E0,4.2967753E0,1.5475472E0,1.0455585E1,2.9099016E0,1.1288286E0,1.6616935E0,8.698726E0,2.0313803E1,3.5946035E0,1.6911173E1,2.5955977E0,1.7011775E0,7.9307914E0,2.5247934E0,1.1467687E0,1.7631328E0,4.260332E0,4.4383936E0,3.5335615E0,1.6780241E1,1.55962925E1,1.314881E0],"tree_param":{"num_deleted":"0","num_feature":"7","num_nodes":"53","size_leaf_vector":"1"}},{"base_weights":[1.1071345E-2,2.0886418E-1,-9.125679E-2,5.3977823E-1,4.0053554E-2,-2.8857246E-1,-1.5978288E-2,6.3961387E-1,6.6631567E-3,3.7909013E-1,-3.1585235E-2,-1.5842815E-1,-2.3110421E-1,1.6496277E-1,-5.7955705E-2,3.5049456E-1,2.5179842E-1,1.5746081E-1,3.9790716E-2,8.122339E-2,-3.8362467E-1,-2.7004552E-1,1.5392607E-1,-1.8638423E-2,-5.179161E-1,5.7649795E-2,2.0063846E-1,-1.0908437E-1,1.7830878E-1,1.2960857E-2,-1.5906996E-1,-4.025552E-2,-2.475232E-1,2.477488E-1,-7.309062E-2,-4.084616E-2,-1.9153097E-1,1.1672669E-1,-1.3293321E-1,1.6342541E-2,-1.101212E-1,-7.588034E-2,1.8406957E-1,2.3253309E-2,-5.959701E-2],"categories":[],"categories_nodes":[],"categories_segments":[],"categories_sizes":[],"default_left":[0,0,0,0,0,0,0,0,0,0,0,0,0,0,0,0,0,0,0,0,0,0,0,0,0,0,0,0,0,0,0,0,0,0,0,0,0,0,0,0,0,0,0,0,0],"id":9,"left_children":[1,3,5,7,9,11,13,15,-1,17,19,21,-1,-1,23,25,-1,-1,-1,27,29,31,-1,33,35,37,-1,39,-1,-1,-1,41,-1,-1,43,-1,-1,-1,-1,-1,-1,-1,-1,-1,-1],"loss_changes":[1.8740338E0,1.7409698E0,9.029047E-1,5.324068E-1,5.456845E-1,9.3218195E-1,1.1074915E0,2.157917E-1,0E0,7.086551E-2,7.882496E-1,1.2251217E0,0E0,0E0,7.6907563E-1,4.578333E-1,0E0,0E0,0E0,1.5553195E0,3.2334727E-1,1.635743E0,0E0,1.9322039E0,6.737578E-2,8.143727E-1,0E0,5.254477E-1,0E0,0E0,0E0,1.5882227E0,0E0,0E0,7.559321E-1,0E0,0E0,0E0,0E0,0E0,0E0,0E0,0E0,0E0,0E0],"parents":[2147483647,0,0,1,1,2,2,3,3,4,4,5,5,6,6,7,7,9,9,10,10,11,11,14,14,15,15,19,19,20,20,21,21,23,23,24,24,25,25,27,27,31,31,34,34],"right_children":[2,4,6,8,10,12,14,16,-1,18,20,22,-1,-1,24,26,-1,-1,-1,28,30,32,-1,34,36,38,-1,40,-1,-1,-1,42,-1,-1,44,-1,-1,-1,-1,-1,-1,-1,-1,-1,-1],"split_conditions":[1E0,3E0,7.925E0,1.5155E2,1E0,3.25E1,8.0292E0,2.9125E1,6.6631567E-3,1.6E1,1.78E1,2.9E1,-2.3110421E-1,1.6496277E-1,3E0,1E0,2.5179842E-1,1.5746081E-1,3.9790716E-2,1.11333E1,7E0,7.8E0,1.5392607E-1,1E1,5E0,1.38625E1,2.0063846E-1,8.05E0,1.7830878E-1,1.2960857E-2,-1.5906996E-1,7.775E0,-2.475232E-1,2.477488E-1,2E0,-4.084616E-2,-1.9153097E-1,1.1672669E-1,-1.3293321E-1,1.6342541E-2,-1.101212E-1,-7.588034E-2,1.8406957E-1,2.3253309E-2,-5.959701E-2],"split_indices":[1,0,5,5,6,2,5,5,0,2,5,2,0,0,3,4,0,0,0,5,2,5,0,2,2,5,0,5,0,0,0,5,0,0,0,0,0,0,0,0,0,0,0,0,0],"split_type":[0,0,0,0,0,0,0,0,0,0,0,0,0,0,0,0,0,0,0,0,0,0,0,0,0,0,0,0,0,0,0,0,0,0,0,0,0,0,0,0,0,0,0,0,0],"sum_hessian":[9.064992E1,3.0552681E1,6.0097233E1,9.578574E0,2.0974108E1,1.5813748E1,4.4283485E1,7.832019E0,1.7465557E0,2.9101045E0,1.8064003E1,1.3496668E1,2.3170812E0,2.222668E0,4.2060818E1,4.3253455E0,3.5066733E0,1.1187037E0,1.7914007E0,1.4262848E1,3.8011546E0,1.2085676E1,1.4109912E0,3.970718E1,2.3536365E0,2.8679097E0,1.4574361E0,1.0978626E1,3.2842216E0,1.1521549E0,2.6489995E0,9.30558E0,2.7800963E0,1.5471524E0,3.8160027E1,1.0757599E0,1.2778765E0,1.8598989E0,1.0080106E0,7.2016997E0,3.7769265E0,7.4842124E0,1.8213677E0,1.752435E1,2.063568E1],"tree_param":{"num_deleted":"0","num_feature":"7","num_nodes":"45","size_leaf_vector":"1"}},{"base_weights":[1.320179E-2,2.5478563E-1,-4.810022E-2,5.55052E-1,4.990144E-2,-2.6906204E-1,3.023957E-2,6.409137E-1,1.5562056E-2,-1.729442E-1,2.924603E-1,-1.2768495E-1,-2.589931E-1,-1.05645195E-1,2.3849101E-1,2.4437676E-1,2.8745E-1,3.1041744E-1,-3.1683248E-1,-1.4441182E-1,1.8626617E-1,-2.1996121E-1,3.208828E-2,3.6593848E-1,-1.5042041E-1,2.0780273E-1,6.282291E-2,1.6603845E-1,-8.88667E-2,2.0491938E-1,-1.1762144E-1,-2.2305611E-1,5.6707466E-1,1.5609667E-1,1.4424019E-2,-2.8928617E-1,4.9177073E-2,3.4420893E-1,-3.013841E-1,5.718723E-2,-1.0376431E-1,7.058325E-2,-1.3748756E-1,6.404433E-2,2.0438771E-1,-4.7076374E-2,-2.9679474E-1,1.0635702E-1,-1.117513E-1,1.3973127E-1,-3.9628807E-2,2.4374498E-3,-2.100913E-1],"categories":[],"categories_nodes":[],"categories_segments":[],"categories_sizes":[],"default_left":[0,0,0,0,0,0,0,0,0,0,0,0,0,0,0,0,0,0,0,0,0,0,0,0,0,0,0,0,0,0,0,0,0,0,0,0,0,0,0,0,0,0,0,0,0,0,0,0,0,0,0,0,0],"id":10,"left_children":[1,3,5,7,9,11,13,15,-1,17,19,21,-1,23,25,27,-1,29,-1,-1,-1,-1,31,33,35,-1,37,-1,-1,-1,39,41,43,-1,-1,45,47,49,51,-1,-1,-1,-1,-1,-1,-1,-1,-1,-1,-1,-1,-1,-1],"loss_changes":[1.3187565E0,1.0805165E0,1.2407215E0,2.7814436E-1,6.8875515E-1,1.4640609E0,1.5382279E0,5.293195E-1,0E0,3.2228441E0,1.8300607E0,1.6015391E0,0E0,7.5287104E-1,1.6654161E0,8.3894986E-1,0E0,9.027196E-1,0E0,0E0,0E0,0E0,2.0188663E0,1.2990627E-1,8.7045074E-1,0E0,1.799308E0,0E0,0E0,0E0,2.947879E-1,1.1972685E0,4.676044E-2,0E0,0E0,1.5462099E0,1.8740298E0,6.2898326E-1,9.618833E-1,0E0,0E0,0E0,0E0,0E0,0E0,0E0,0E0,0E0,0E0,0E0,0E0,0E0,0E0],"parents":[2147483647,0,0,1,1,2,2,3,3,4,4,5,5,6,6,7,7,9,9,10,10,11,11,13,13,14,14,15,15,17,17,22,22,23,23,24,24,26,26,30,30,31,31,32,32,35,35,36,36,37,37,38,38],"right_children":[2,4,6,8,10,12,14,16,-1,18,20,22,-1,24,26,28,-1,30,-1,-1,-1,-1,32,34,36,-1,38,-1,-1,-1,40,42,44,-1,-1,46,48,50,52,-1,-1,-1,-1,-1,-1,-1,-1,-1,-1,-1,-1,-1,-1],"split_conditions":[1E0,2.7E1,7.925E0,9.35E1,3.05E1,7.8875E0,3.1E1,1.505E1,1.5562056E-2,3E1,3.2E1,2.1E1,-2.589931E-1,8.05E0,1E0,1.2275E1,2.8745E-1,1.4E1,-3.1683248E-1,-1.4441182E-1,1.8626617E-1,-2.1996121E-1,7.775E0,2.2E1,2.16792E1,2.0780273E-1,4.5E1,1.6603845E-1,-8.88667E-2,2.0491938E-1,1E0,2.8E1,7.7958E0,1.5609667E-1,1.4424019E-2,1.87875E1,3.96E1,1E0,3.1E1,5.718723E-2,-1.0376431E-1,7.058325E-2,-1.3748756E-1,6.404433E-2,2.0438771E-1,-4.7076374E-2,-2.9679474E-1,1.0635702E-1,-1.117513E-1,1.3973127E-1,-3.9628807E-2,2.4374498E-3,-2.100913E-1],"split_indices":[6,2,5,5,5,5,2,5,0,2,2,2,0,5,1,5,0,5,0,0,0,0,5,2,5,0,2,0,0,0,1,2,5,0,0,5,5,4,5,0,0,0,0,0,0,0,0,0,0,0,0,0,0],"split_type":[0,0,0,0,0,0,0,0,0,0,0,0,0,0,0,0,0,0,0,0,0,0,0,0,0,0,0,0,0,0,0,0,0,0,0,0,0,0,0,0,0,0,0,0,0,0,0,0,0,0,0,0,0],"sum_hessian":[8.722005E1,1.7013937E1,7.020611E1,6.207493E0,1.0806443E1,1.7738659E1,5.246745E1,5.068825E0,1.1386683E0,5.7816653E0,5.024778E0,1.5310919E1,2.4277403E0,3.204844E1,2.041901E1,3.0397303E0,2.0290942E0,4.1557255E0,1.6259398E0,1.3584151E0,3.6663628E0,2.447227E0,1.2863691E1,2.1570513E0,2.9891388E1,4.874093E0,1.5544917E1,1.9188468E0,1.1208835E0,1.9031012E0,2.2526245E0,9.104607E0,3.7590845E0,1.023147E0,1.1339043E0,1.7362469E1,1.252892E1,8.800538E0,6.744379E0,1.0285431E0,1.2240814E0,3.087921E0,6.016686E0,1.6182867E0,2.1407979E0,1.5631041E1,1.7314276E0,7.359239E0,5.169681E0,7.0287786E0,1.7717596E0,4.349432E0,2.394947E0],"tree_param":{"num_deleted":"0","num_feature":"7","num_nodes":"53","size_leaf_vector":"1"}},{"base_weights":[6.00577E-3,1.5915683E-1,-7.1448795E-2,4.4282585E-1,3.116112E-2,-4.8700184E-2,-4.601243E-1,1.5812834E-1,6.472259E-1,1.497312E-1,-1.7717095E-1,2.2295287E-1,-8.1579894E-2,-1.7844442E-1,-3.027319E-2,4.6473947E-1,-6.869309E-2,2.1331014E-2,2.3609285E-1,-2.5875444E-2,4.1661814E-1,-1.6311966E-1,3.5499323E-2,-1.2751944E-1,1.13679975E-1,1.7468277E-1,3.278664E-2,1.6182281E-1,-2.3342793E-1,6.0876125E-1,4.3789754E-3,-4.4084993E-1,4.5025253E-1,-7.984541E-2,-2.3770164E-1,4.019864E-1,-4.0031895E-1,1.1591015E-1,1.7945147E-3,7.5791195E-2,2.2685428E-1,-2.2876214E-2,-1.7641482E-1,2.2445248E-1,5.679295E-3,6.5206446E-2,-4.5907967E-2,-8.527523E-3,2.7103388E-1,-3.6554795E-2,-1.6001785E-1],"categories":[],"categories_nodes":[],"categories_segments":[],"categories_sizes":[],"default_left":[0,0,0,0,0,0,0,0,0,0,0,0,0,0,0,0,0,0,0,0,0,0,0,0,0,0,0,0,0,0,0,0,0,0,0,0,0,0,0,0,0,0,0,0,0,0,0,0,0,0,0],"id":11,"left_children":[1,3,5,7,9,11,13,15,17,19,21,-1,23,-1,-1,25,-1,-1,-1,27,29,-1,31,33,35,-1,-1,37,-1,39,-1,41,43,45,-1,47,49,-1,-1,-1,-1,-1,-1,-1,-1,-1,-1,-1,-1,-1,-1],"loss_changes":[1.0411009E0,1.0560715E0,4.9343368E-1,4.263891E-1,5.5466044E-1,1.5247645E0,9.032333E-2,7.14166E-1,3.4383512E-1,6.74765E-1,6.595447E-1,0E0,5.06894E-1,0E0,0E0,6.952715E-2,0E0,0E0,0E0,1.4653094E0,4.2993927E-1,0E0,1.4107884E0,1.3601139E0,1.788596E0,0E0,0E0,2.9232824E-1,0E0,9.468555E-3,0E0,1.3555169E-1,4.7090602E-1,9.688415E-1,0E0,1.6521478E0,9.9836946E-2,0E0,0E0,0E0,0E0,0E0,0E0,0E0,0E0,0E0,0E0,0E0,0E0,0E0,0E0],"parents":[2147483647,0,0,1,1,2,2,3,3,4,4,5,5,6,6,7,7,8,8,9,9,10,10,12,12,15,15,19,19,20,20,22,22,23,23,24,24,27,27,29,29,31,31,32,32,33,33,35,35,36,36],"right_children":[2,4,6,8,10,12,14,16,18,20,22,-1,24,-1,-1,26,-1,-1,-1,28,30,-1,32,34,36,-1,-1,38,-1,40,-1,42,44,46,-1,48,50,-1,-1,-1,-1,-1,-1,-1,-1,-1,-1,-1,-1,-1,-1],"split_conditions":[1E0,3E0,3E0,2.8E1,1E0,1E1,2E0,2.4E1,1E0,8.6833E0,1.5E1,2.2295287E-1,5.25542E1,-1.7844442E-1,-3.027319E-2,5.94E1,-6.869309E-2,2.1331014E-2,2.3609285E-1,8.05E0,1.35E1,-1.6311966E-1,2.7E1,3.675E1,3.9E1,1.7468277E-1,3.278664E-2,7.7417E0,-2.3342793E-1,2.45E1,4.3789754E-3,7E0,1.78E1,2E0,-2.3770164E-1,3E1,1E0,1.1591015E-1,1.7945147E-3,7.5791195E-2,2.2685428E-1,-2.2876214E-2,-1.7641482E-1,2.2445248E-1,5.679295E-3,6.5206446E-2,-4.5907967E-2,-8.527523E-3,2.7103388E-1,-3.6554795E-2,-1.6001785E-1],"split_indices":[1,0,3,2,3,2,4,2,6,5,5,0,5,0,0,5,0,0,0,5,5,0,2,5,2,0,0,5,0,2,0,2,5,0,0,2,6,0,0,0,0,0,0,0,0,0,0,0,0,0,0],"split_type":[0,0,0,0,0,0,0,0,0,0,0,0,0,0,0,0,0,0,0,0,0,0,0,0,0,0,0,0,0,0,0,0,0,0,0,0,0,0,0,0,0,0,0,0,0,0,0,0,0,0,0],"sum_hessian":[8.580727E1,2.8466185E1,5.734108E1,8.085996E0,2.0380188E1,5.523363E1,2.1074462E0,4.120459E0,3.9655364E0,1.3167389E1,7.2128E0,1.3407228E0,5.389291E1,1.055716E0,1.0517303E0,2.187374E0,1.9330851E0,1.0686791E0,2.8968573E0,8.4864855E0,4.680903E0,2.0766935E0,5.1361065E0,4.3909157E1,9.983753E0,1.1642567E0,1.0231174E0,7.4198966E0,1.0665888E0,2.8192255E0,1.8616776E0,2.3612547E0,2.7748518E0,4.201628E1,1.8928758E0,6.53573E0,3.448023E0,2.433844E0,4.9860525E0,1.6198521E0,1.1993735E0,1.1157365E0,1.2455182E0,1.2067294E0,1.5681225E0,7.912454E0,3.410383E1,4.024634E0,2.5110955E0,1.7343607E0,1.7136624E0],"tree_param":{"num_deleted":"0","num_feature":"7","num_nodes":"51","size_leaf_vector":"1"}},{"base_weights":[8.281632E-3,-4.820159E-1,3.147505E-2,-3.9268333E-2,-1.714885E-1,2.2364336E-1,-1.9508746E-2,6.0374343E-1,4.587127E-2,1.01461254E-1,-8.578036E-2,2.1377169E-1,2.909219E-1,-1.956316E-1,1.6935633E-1,-1.7684975E-1,1.7485543E-1,-4.484114E-2,-4.613425E-1,1.8383178E-1,-5.0183285E-2,6.2378126E-1,-5.797285E-2,5.4342115E-1,6.790204E-2,2.4153513E-1,-1.3605303E-1,-2.2891386E-1,1.2204099E-2,2.5229177E-1,1.2752262E-2,-1.6824742E-1,5.5951048E-2,2.1328163E-1,1.879284E-2,-2.194776E-2,1.10013E-1,2.0535934E-1,-3.5096236E-2,-1.4382862E-2,-8.970138E-2],"categories":[],"categories_nodes":[],"categories_segments":[],"categories_sizes":[],"default_left":[0,0,0,0,0,0,0,0,0,0,0,0,0,0,0,0,0,0,0,0,0,0,0,0,0,0,0,0,0,0,0,0,0,0,0,0,0,0,0,0,0],"id":12,"left_children":[1,3,5,-1,-1,7,9,11,13,15,17,19,-1,-1,21,-1,23,25,27,-1,-1,29,31,33,35,37,39,-1,-1,-1,-1,-1,-1,-1,-1,-1,-1,-1,-1,-1,-1],"loss_changes":[9.702441E-1,4.6468437E-2,7.992528E-1,0E0,0E0,1.127226E0,5.3012294E-1,5.5833364E-1,1.2074267E0,1.2937161E0,6.337131E-1,6.9239384E-1,0E0,0E0,1.2353349E0,0E0,8.3013165E-1,1.0642753E0,6.483841E-1,0E0,0E0,4.6365666E-1,1.1682856E0,3.4239912E-1,7.935722E-1,1.6522431E0,4.2482853E-1,0E0,0E0,0E0,0E0,0E0,0E0,0E0,0E0,0E0,0E0,0E0,0E0,0E0,0E0],"parents":[2147483647,0,0,1,1,2,2,5,5,6,6,7,7,8,8,9,9,10,10,11,11,14,14,16,16,17,17,18,18,21,21,22,22,23,23,24,24,25,25,26,26],"right_children":[2,4,6,-1,-1,8,10,12,14,16,18,20,-1,-1,22,-1,24,26,28,-1,-1,30,32,34,36,38,40,-1,-1,-1,-1,-1,-1,-1,-1,-1,-1,-1,-1,-1,-1],"split_conditions":[7.1417E0,5E0,1E0,-3.9268333E-2,-1.714885E-1,1.4E1,1E0,7.25E0,1.51E1,4E0,5.3E1,2.3E1,2.909219E-1,-1.956316E-1,2.7E1,-1.7684975E-1,2E1,2E0,6.2E1,1.8383178E-1,-5.0183285E-2,9.35E1,2.9125E1,2E0,3E1,3.1E1,1.34167E1,-2.2891386E-1,1.2204099E-2,2.5229177E-1,1.2752262E-2,-1.6824742E-1,5.5951048E-2,2.1328163E-1,1.879284E-2,-2.194776E-2,1.10013E-1,2.0535934E-1,-3.5096236E-2,-1.4382862E-2,-8.970138E-2],"split_indices":[5,5,6,0,0,5,1,5,5,2,2,2,0,0,2,0,2,0,2,0,0,5,5,3,2,5,5,0,0,0,0,0,0,0,0,0,0,0,0,0,0],"split_type":[0,0,0,0,0,0,0,0,0,0,0,0,0,0,0,0,0,0,0,0,0,0,0,0,0,0,0,0,0,0,0,0,0,0,0,0,0,0,0,0,0],"sum_hessian":[8.2986984E1,2.854829E0,8.013215E1,1.0807763E0,1.7740527E0,1.6091908E1,6.4040245E1,4.364299E0,1.172761E1,2.2478233E1,4.156201E1,2.879864E0,1.4844351E0,1.1194246E0,1.0608185E1,1.4831678E0,2.0995066E1,3.848612E1,3.0758908E0,1.1097322E0,1.7701317E0,2.9557545E0,7.65243E0,3.804317E0,1.7190748E1,8.898765E0,2.9587355E1,1.5964937E0,1.479397E0,1.8265092E0,1.1292452E0,2.0800629E0,5.572367E0,2.4662697E0,1.3380471E0,1.2190853E1,4.9998946E0,3.573716E0,5.3250484E0,2.0043678E1,9.543676E0],"tree_param":{"num_deleted":"0","num_feature":"7","num_nodes":"41","size_leaf_vector":"1"}},{"base_weights":[7.174973E-3,-1.5094364E-1,2.4262952E-2,6.108453E-2,-1.9637227E-1,4.157737E-2,2.033605E-1,-2.2615008E-1,5.6756135E-2,7.707554E-2,-2.1602017E-1,1.978283E-1,-1.0917893E-1,2.4306834E-2,4.78148E-1,-1.8207367E-1,1.8383041E-1,1.854008E-2,-2.0471437E-1,2.3017739E-1,4.7922794E-2,9.709094E-2,-1.3428064E-1],"categories":[],"categories_nodes":[],"categories_segments":[],"categories_sizes":[],"default_left":[0,0,0,0,0,0,0,0,0,0,0,0,0,0,0,0,0,0,0,0,0,0,0],"id":13,"left_children":[1,-1,3,5,7,9,-1,-1,11,13,-1,15,-1,17,19,21,-1,-1,-1,-1,-1,-1,-1],"loss_changes":[7.314974E-1,0E0,6.681461E-1,8.1376076E-1,1.706236E0,1.9182727E0,0E0,0E0,6.0832286E-1,1.4007077E0,0E0,1.2805234E0,0E0,1.6326537E0,5.8676004E-1,7.682073E-1,0E0,0E0,0E0,0E0,0E0,0E0,0E0],"parents":[2147483647,0,0,2,2,3,3,4,4,5,5,8,8,9,9,11,11,13,13,14,14,15,15],"right_children":[2,-1,4,6,8,10,-1,-1,12,14,-1,16,-1,18,20,22,-1,-1,-1,-1,-1,-1,-1],"split_conditions":[6.975E0,-1.5094364E-1,4.5E1,2.62375E2,4.8E1,1.356333E2,2.033605E-1,-2.2615008E-1,1E0,5.25542E1,-2.1602017E-1,3E1,-1.0917893E-1,3.96E1,6.66E1,1.05167E1,1.8383041E-1,1.854008E-2,-2.0471437E-1,2.3017739E-1,4.7922794E-2,9.709094E-2,-1.3428064E-1],"split_indices":[5,0,2,5,2,5,0,0,4,5,0,5,0,5,5,5,0,0,0,0,0,0,0],"split_type":[0,0,0,0,0,0,0,0,0,0,0,0,0,0,0,0,0,0,0,0,0,0,0],"sum_hessian":[8.148408E1,1.71848E0,7.9765594E1,6.89772E1,1.078839E1,6.789721E1,1.0799909E0,2.7512598E0,8.03713E0,6.573241E1,2.164804E0,6.415511E0,1.6216195E0,5.90269E1,6.705506E0,3.6421294E0,2.7733815E0,5.6919575E1,2.1073263E0,2.7755954E0,3.9299107E0,1.1785988E0,2.4635305E0],"tree_param":{"num_deleted":"0","num_feature":"7","num_nodes":"23","size_leaf_vector":"1"}},{"base_weights":[1.1894444E-3,1.5657823E-1,-3.8590014E-2,3.7705675E-1,-4.7781216E-3,-1.9250497E-1,1.6010206E-2,5.115011E-1,-3.630983E-2,-9.255551E-2,1.18530914E-1,-6.711145E-2,-2.3472705E-1,4.6035793E-1,-3.1066958E-2,4.5205306E-2,7.478092E-1,2.0886235E-1,-3.1196362E-1,-1.9958426E-1,7.909779E-2,2.4470614E-2,1.8042566E-1,9.3409956E-2,-1.5519068E-1,7.759699E-2,-5.6555167E-2,4.1045275E-2,3.20523E-1,-1.010979E-2,1.0176872E-1,-2.6073807E-1,-1.6479494E-4,2.210167E-1,-2.0628016E-1,2.1758263E-1,-9.838749E-2,-2.3351744E-1,3.016014E-1,6.772084E-2,-8.411188E-2,2.2189557E-3,1.6919431E-1,-4.1372433E-2,1.1250629E-1,2.3878744E-2,-1.3176423E-1,-3.583171E-2,-2.3903899E-1,1.7594814E-1,-2.314198E-2],"categories":[],"categories_nodes":[],"categories_segments":[],"categories_sizes":[],"default_left":[0,0,0,0,0,0,0,0,0,0,0,0,0,0,0,0,0,0,0,0,0,0,0,0,0,0,0,0,0,0,0,0,0,0,0,0,0,0,0,0,0,0,0,0,0,0,0,0,0,0,0],"id":14,"left_children":[1,3,5,7,9,11,13,15,-1,17,-1,19,-1,21,23,25,27,29,31,-1,33,-1,-1,35,37,-1,-1,-1,-1,-1,-1,-1,39,41,-1,43,45,47,49,-1,-1,-1,-1,-1,-1,-1,-1,-1,-1,-1,-1],"loss_changes":[5.132019E-1,6.037689E-1,5.587982E-1,5.415758E-1,4.1417557E-1,1.2340299E0,1.0546812E0,6.087979E-1,0E0,7.021342E-1,0E0,1.4027302E0,0E0,2.0889628E-1,7.237829E-1,1.9971149E-1,5.9936666E-1,1.5867977E-1,1.0378797E0,0E0,1.599003E0,0E0,0E0,5.8215773E-1,9.0629274E-1,0E0,0E0,0E0,0E0,0E0,0E0,0E0,3.6911198E-1,8.734157E-1,0E0,8.690467E-1,6.3803005E-1,1.2224996E0,4.612974E-1,0E0,0E0,0E0,0E0,0E0,0E0,0E0,0E0,0E0,0E0,0E0,0E0],"parents":[2147483647,0,0,1,1,2,2,3,3,4,4,5,5,6,6,7,7,9,9,11,11,13,13,14,14,15,15,16,16,17,17,18,18,20,20,23,23,24,24,32,32,33,33,35,35,36,36,37,37,38,38],"right_children":[2,4,6,8,10,12,14,16,-1,18,-1,20,-1,22,24,26,28,30,32,-1,34,-1,-1,36,38,-1,-1,-1,-1,-1,-1,-1,40,42,-1,44,46,48,50,-1,-1,-1,-1,-1,-1,-1,-1,-1,-1,-1,-1],"split_conditions":[1E0,2.8E1,7.925E0,9.35E1,5.1E1,7.8875E0,8.05E0,1.9E1,-3.630983E-2,2.2525E1,1.18530914E-1,2.1E1,-2.3472705E-1,2.6E1,3E0,1.3E1,1.505E1,7.25E0,2.9125E1,-1.9958426E-1,3.25E1,2.4470614E-2,1.8042566E-1,3.1E1,3.13875E1,7.759699E-2,-5.6555167E-2,4.1045275E-2,3.20523E-1,-1.010979E-2,1.0176872E-1,-2.6073807E-1,1E0,7.775E0,-2.0628016E-1,2.8E1,4.05E1,2.345E1,2.7E1,6.772084E-2,-8.411188E-2,2.2189557E-3,1.6919431E-1,-4.1372433E-2,1.1250629E-1,2.3878744E-2,-1.3176423E-1,-3.583171E-2,-2.3903899E-1,1.7594814E-1,-2.314198E-2],"split_indices":[6,2,5,5,2,5,5,2,0,5,0,2,0,2,0,2,5,5,5,0,2,0,0,5,5,0,0,0,0,0,0,0,3,5,0,2,2,5,2,0,0,0,0,0,0,0,0,0,0,0,0],"split_type":[0,0,0,0,0,0,0,0,0,0,0,0,0,0,0,0,0,0,0,0,0,0,0,0,0,0,0,0,0,0,0,0,0,0,0,0,0,0,0,0,0,0,0,0,0,0,0,0,0,0,0],"sum_hessian":[8.104763E1,1.5920787E1,6.512684E1,6.162925E0,9.757862E0,1.639226E1,4.873458E1,4.8318E0,1.3311253E0,8.631677E0,1.1261855E0,1.4437235E1,1.9550256E0,3.827655E0,4.4906925E1,2.0257602E0,2.8060396E0,3.6565104E0,4.9751663E0,2.1384084E0,1.2298826E1,1.4668887E0,2.3607664E0,2.2545109E1,2.2361816E1,1.0030365E0,1.0227237E0,1.4566851E0,1.3493546E0,1.537439E0,2.1190715E0,1.1438048E0,3.8313618E0,1.0978409E1,1.3204179E0,1.3603529E1,8.941579E0,1.9505901E1,2.8559155E0,2.2288687E0,1.6024929E0,7.3943186E0,3.5840898E0,4.2135396E0,9.38999E0,6.3775935E0,2.5639853E0,1.7228693E1,2.2772076E0,1.3168421E0,1.5390736E0],"tree_param":{"num_deleted":"0","num_feature":"7","num_nodes":"51","size_leaf_vector":"1"}},{"base_weights":[-3.1558413E-3,1.2542139E-1,-6.7269064E-2,3.6579594E-1,2.5633873E-2,1.2083105E-1,-8.539905E-2,1.137295E-1,5.682779E-1,7.563809E-2,-1.2149975E-1,-6.325516E-2,-1.770857E-1,1.21858336E-1,-6.303255E-2,2.1502455E-1,1.6437529E-2,1.9864814E-2,1.4361987E-1,1.12587586E-1,-8.003124E-2,1.020712E-1,-4.9486294E-2,-4.612519E-2,-3.114267E-1,9.551983E-2,-3.7378993E-2,-8.819896E-2,6.333583E-3,8.029232E-2,-1.4326605E-1],"categories":[],"categories_nodes":[],"categories_segments":[],"categories_sizes":[],"default_left":[0,0,0,0,0,0,0,0,0,0,0,0,0,0,0,0,0,0,0,0,0,0,0,0,0,0,0,0,0,0,0],"id":15,"left_children":[1,3,5,7,9,-1,11,13,15,17,-1,19,-1,-1,-1,-1,-1,21,-1,-1,23,-1,25,27,29,-1,-1,-1,-1,-1,-1],"loss_changes":[6.78917E-1,6.481188E-1,5.0244063E-1,3.41936E-1,4.7089398E-1,0E0,5.6313014E-1,5.39829E-1,2.7842283E-1,4.2126504E-1,0E0,4.1681153E-1,0E0,0E0,0E0,0E0,0E0,4.1399437E-1,0E0,0E0,3.8936839E-1,0E0,4.6983135E-1,7.737899E-1,7.437456E-1,0E0,0E0,0E0,0E0,0E0,0E0],"parents":[2147483647,0,0,1,1,2,2,3,3,4,4,6,6,7,7,8,8,9,9,11,11,17,17,20,20,22,22,23,23,24,24],"right_children":[2,4,6,8,10,-1,12,14,16,18,-1,20,-1,-1,-1,-1,-1,22,-1,-1,24,-1,26,28,30,-1,-1,-1,-1,-1,-1],"split_conditions":[1E0,3E0,4E0,2.8E1,3.65E1,1.2083105E-1,3E0,2.4E1,4.55E1,3.1E1,-1.2149975E-1,1.3E1,-1.770857E-1,1.21858336E-1,-6.303255E-2,2.1502455E-1,1.6437529E-2,7.7417E0,1.4361987E-1,1.12587586E-1,1E0,1.020712E-1,6E0,2.5E1,2.2E1,9.551983E-2,-3.7378993E-2,-8.819896E-2,6.333583E-3,8.029232E-2,-1.4326605E-1],"split_indices":[1,0,2,2,2,0,3,2,2,2,0,2,0,0,0,0,0,5,0,0,4,0,2,2,2,0,0,0,0,0,0],"split_type":[0,0,0,0,0,0,0,0,0,0,0,0,0,0,0,0,0,0,0,0,0,0,0,0,0,0,0,0,0,0,0],"sum_hessian":[8.033438E1,2.6411211E1,5.3923172E1,6.9657993E0,1.9445412E1,1.2147138E0,5.2708458E1,3.7986279E0,3.1671712E0,1.8160955E1,1.2844568E0,5.1571846E1,1.1366104E0,1.8623693E0,1.9362587E0,2.1497424E0,1.0174289E0,1.687532E1,1.285634E0,1.1127429E0,5.0459106E1,2.3078818E0,1.4567439E1,4.505639E1,5.4027147E0,1.920731E0,1.26467085E1,8.894407E0,3.6161983E1,1.0682062E0,4.334509E0],"tree_param":{"num_deleted":"0","num_feature":"7","num_nodes":"31","size_leaf_vector":"1"}},{"base_weights":[2.6453421E-3,-9.977004E-3,1.4006348E-1,1.1821433E-2,-5.180677E-1,-7.851941E-3,2.0986065E-1,-1.9876498E-1,-3.6987472E-2,3.5295397E-1,-3.1107781E-2,-2.8817734E-2,2.1701531E-1,-4.7581825E-2,9.90698E-2,-1.2546245E-3,-1.0916893E-1],"categories":[],"categories_nodes":[],"categories_segments":[],"categories_sizes":[],"default_left":[0,0,0,0,0,0,0,0,0,0,0,0,0,0,0,0,0],"id":16,"left_children":[1,3,-1,5,7,9,-1,-1,-1,11,13,-1,-1,15,-1,-1,-1],"loss_changes":[4.7211567E-1,8.771339E-1,0E0,1.0389537E0,1.0411358E-1,6.4238566E-1,0E0,0E0,0E0,8.408381E-1,4.419998E-1,0E0,0E0,9.5069706E-1,0E0,0E0,0E0],"parents":[2147483647,0,0,1,1,3,3,4,4,5,5,9,9,10,10,13,13],"right_children":[2,4,-1,6,8,10,-1,-1,-1,12,14,-1,-1,16,-1,-1,-1],"split_conditions":[2.62375E2,1.356333E2,1.4006348E-1,1.108833E2,1.648667E2,6E0,2.0986065E-1,-1.9876498E-1,-3.6987472E-2,3E0,6E1,-2.8817734E-2,2.1701531E-1,4.5E1,9.90698E-2,-1.2546245E-3,-1.0916893E-1],"split_indices":[5,5,0,5,5,2,0,0,0,2,2,0,0,2,0,0,0],"split_type":[0,0,0,0,0,0,0,0,0,0,0,0,0,0,0,0,0],"sum_hessian":[7.8774895E1,7.7642334E1,1.1325618E0,7.538486E1,2.2574766E0,7.42494E1,1.1354631E0,1.1560767E0,1.1013999E0,3.6375241E0,7.061187E1,1.9791733E0,1.6583508E0,6.83634E1,2.2484698E0,6.1006294E1,7.357108E0],"tree_param":{"num_deleted":"0","num_feature":"7","num_nodes":"17","size_leaf_vector":"1"}},{"base_weights":[5.4694996E-3,1.11485355E-1,-4.7133382E-2,-1.0930941E-1,1.5814057E-1,7.129606E-2,-1.0822179E-1,3.458456E-2,4.6053797E-1,-8.195542E-2,3.2326096E-1,-1.4379866E-1,1.2651023E-1,1.146849E-1,-1.4219101E-1,6.061221E-1,1.19518034E-1,2.6393428E-1,-1.9169024E-1,-9.646529E-2,-4.960067E-1,3.1976964E-2,1.5920115E-1,2.1886171E-1,2.9389484E-2,1.1935963E-1,-6.418968E-2,-2.3369115E-2,4.0627322E-1,1.9607802E-1,-3.2874447E-1,-5.0493747E-1,-4.2502176E-2,-2.0270263E-1,-3.4456372E-2,3.9849967E-2,-1.4124009E-1,2.306789E-2,1.6994423E-1,1.5703252E-1,-7.8964785E-2,8.0759786E-2,-1.2903324E-1,-5.3565953E-2,-1.8114646E-1,9.982707E-3,-1.0014642E-1],"categories":[],"categories_nodes":[],"categories_segments":[],"categories_sizes":[],"default_left":[0,0,0,0,0,0,0,0,0,0,0,0,0,0,0,0,0,0,0,0,0,0,0,0,0,0,0,0,0,0,0,0,0,0,0,0,0,0,0,0,0,0,0,0,0,0,0],"id":17,"left_children":[1,3,5,-1,7,9,11,13,15,17,-1,19,-1,21,-1,23,25,27,29,31,33,35,-1,-1,-1,-1,-1,-1,37,39,41,43,45,-1,-1,-1,-1,-1,-1,-1,-1,-1,-1,-1,-1,-1,-1],"loss_changes":[4.493351E-1,6.504998E-1,3.9784977E-1,0E0,9.188204E-1,3.011055E0,7.388265E-1,8.2190317E-1,2.83813E-1,7.101774E-1,0E0,5.265579E-1,0E0,5.707932E-1,0E0,2.2851455E-1,4.0003487E-1,2.5575694E-1,7.9635066E-1,6.754006E-1,1.8539143E-1,8.391E-1,0E0,0E0,0E0,0E0,0E0,0E0,1.3653219E-1,7.726934E-1,7.551614E-1,8.285642E-3,6.516799E-1,0E0,0E0,0E0,0E0,0E0,0E0,0E0,0E0,0E0,0E0,0E0,0E0,0E0,0E0],"parents":[2147483647,0,0,1,1,2,2,4,4,5,5,6,6,7,7,8,8,9,9,11,11,13,13,15,15,16,16,17,17,18,18,19,19,20,20,21,21,28,28,29,29,30,30,31,31,32,32],"right_children":[2,4,6,-1,8,10,12,14,16,18,-1,20,-1,22,-1,24,26,28,30,32,34,36,-1,-1,-1,-1,-1,-1,38,40,42,44,46,-1,-1,-1,-1,-1,-1,-1,-1,-1,-1,-1,-1,-1,-1],"split_conditions":[1E0,4E0,2.8E1,-1.0930941E-1,2.16792E1,2.7E1,1.13275E2,1.78E1,2E0,1E0,3.2326096E-1,1E0,1.2651023E-1,1.55E1,-1.4219101E-1,4.4E1,3.3E1,1.9E1,1.7E1,7.7375E0,3.96E1,1E0,1.5920115E-1,2.1886171E-1,2.9389484E-2,1.1935963E-1,-6.418968E-2,-2.3369115E-2,1.505E1,3E0,7.225E0,1E0,3.675E1,-2.0270263E-1,-3.4456372E-2,3.9849967E-2,-1.4124009E-1,2.306789E-2,1.6994423E-1,1.5703252E-1,-7.8964785E-2,8.0759786E-2,-1.2903324E-1,-5.3565953E-2,-1.8114646E-1,9.982707E-3,-1.0014642E-1],"split_indices":[1,2,2,0,5,2,5,5,4,6,0,4,0,5,0,2,5,2,2,5,5,3,0,0,0,0,0,0,5,3,5,6,5,0,0,0,0,0,0,0,0,0,0,0,0,0,0],"split_type":[0,0,0,0,0,0,0,0,0,0,0,0,0,0,0,0,0,0,0,0,0,0,0,0,0,0,0,0,0,0,0,0,0,0,0,0,0,0,0,0,0,0,0,0,0,0,0],"sum_hessian":[7.863084E1,2.57052E1,5.292564E1,1.6872022E0,2.4017998E1,1.7953287E1,3.4972355E1,1.7842237E1,6.17576E0,1.6377525E1,1.5757617E0,3.3454964E1,1.5173903E0,1.6083483E1,1.7587547E0,3.7832708E0,2.392489E0,3.6060073E0,1.2771518E1,3.061455E1,2.840414E0,1.43143215E1,1.7691611E0,2.6934516E0,1.0898192E0,1.1988181E0,1.1936709E0,1.1932108E0,2.4127965E0,3.222741E0,9.548778E0,2.5972974E0,2.8017252E1,1.4052736E0,1.4351405E0,1.253552E1,1.7788024E0,1.2738239E0,1.1389725E0,1.8000684E0,1.4226725E0,1.1441152E0,8.404662E0,1.2563089E0,1.3409884E0,2.2936731E1,5.08052E0],"tree_param":{"num_deleted":"0","num_feature":"7","num_nodes":"47","size_leaf_vector":"1"}},{"base_weights":[5.6356504E-3,-3.3561695E-1,2.0552114E-2,-2.2394363E-2,-1.2513898E-1,3.5660318E-1,1.8847112E-3,2.3249434E-1,-4.24624E-2,-1.5323026E-1,4.0526006E-2,-4.1336298E-2,-1.6270208E-1,1.9593911E-1,-4.150535E-2,6.097564E-2,-2.7816424E-1,7.75015E-1,1.5331853E-2,-1.967162E-1,1.0912969E-2,-1.0079635E-1,5.0165184E-2,5.676671E-3,-1.1737933E-1,2.8204426E-1,1.02239616E-1,-2.256165E-1,9.188047E-2,1.2370381E-1,-8.3193015E-3],"categories":[],"categories_nodes":[],"categories_segments":[],"categories_sizes":[],"default_left":[0,0,0,0,0,0,0,0,0,0,0,0,0,0,0,0,0,0,0,0,0,0,0,0,0,0,0,0,0,0,0],"id":18,"left_children":[1,3,5,-1,-1,7,9,-1,-1,11,13,15,-1,17,19,21,23,25,27,-1,29,-1,-1,-1,-1,-1,-1,-1,-1,-1,-1],"loss_changes":[4.0310615E-1,3.943342E-2,4.7307223E-1,0E0,0E0,9.368681E-1,4.4106215E-1,0E0,0E0,6.1664593E-1,7.586753E-1,3.194113E-1,0E0,2.1335406E0,1.2743397E0,4.5838976E-1,1.399732E-1,2.7842522E-2,3.9491596E0,0E0,5.8924776E-1,0E0,0E0,0E0,0E0,0E0,0E0,0E0,0E0,0E0,0E0],"parents":[2147483647,0,0,1,1,2,2,5,5,6,6,9,9,10,10,11,11,13,13,14,14,15,15,16,16,17,17,18,18,20,20],"right_children":[2,4,6,-1,-1,8,10,-1,-1,12,14,16,-1,18,20,22,24,26,28,-1,30,-1,-1,-1,-1,-1,-1,-1,-1,-1,-1],"split_conditions":[7.1417E0,6.75E0,7.25E0,-2.2394363E-2,-1.2513898E-1,2.45E1,7.925E0,2.3249434E-1,-4.24624E-2,3E1,1.4E1,7.8E0,-1.6270208E-1,2E1,1.52458E1,7.65E0,1E0,1.01708E1,2.6E1,-1.967162E-1,1.61E1,-1.0079635E-1,5.0165184E-2,5.676671E-3,-1.1737933E-1,2.8204426E-1,1.02239616E-1,-2.256165E-1,9.188047E-2,1.2370381E-1,-8.3193015E-3],"split_indices":[5,5,5,0,0,2,5,0,0,2,5,5,0,2,5,5,1,5,2,0,5,0,0,0,0,0,0,0,0,0,0],"split_type":[0,0,0,0,0,0,0,0,0,0,0,0,0,0,0,0,0,0,0,0,0,0,0,0,0,0,0,0,0,0,0],"sum_hessian":[7.683627E1,2.3175087E0,7.451876E1,1.0075505E0,1.3099582E0,2.9689345E0,7.154983E1,1.3116121E0,1.6573225E0,1.3677953E1,5.7871876E1,1.1482294E1,2.1956594E0,1.9513618E1,3.8358257E1,8.536832E0,2.9454615E0,3.8567307E0,1.5656889E1,2.111164E0,3.6247093E1,1.3458148E0,7.1910176E0,1.0417454E0,1.903716E0,1.94999E0,1.9067407E0,3.8684208E0,1.1788467E1,2.3337498E0,3.391334E1],"tree_param":{"num_deleted":"0","num_feature":"7","num_nodes":"31","size_leaf_vector":"1"}},{"base_weights":[4.150213E-4,-1.0736694E-1,1.1512188E-2,1.0351866E-1,-3.4087334E-2,1.9641885E-1,5.2835893E-2,1.0068439E-1,-4.892431E-2,3.1299883E-1,-5.32668E-2,-3.089981E-1,-1.7234618E-2,1.0331662E-1,4.9248576E-1,-1.8193643E-1,4.3761536E-2,-4.7593635E-1,3.5574574E-3,5.934234E-1,-6.3879505E-2,8.497371E-2,-7.6410316E-2,1.9161795E-1,1.8164769E-2,2.2061404E-2,-1.1717249E-1,8.520889E-2,-4.5478374E-2,-2.9167993E-2,-1.9954728E-1,2.3901893E-1,4.413458E-2,-3.919136E-3,-1.3153152E-1],"categories":[],"categories_nodes":[],"categories_segments":[],"categories_sizes":[],"default_left":[0,0,0,0,0,0,0,0,0,0,0,0,0,0,0,0,0,0,0,0,0,0,0,0,0,0,0,0,0,0,0,0,0,0,0],"id":19,"left_children":[1,-1,3,5,7,-1,9,-1,11,13,15,17,19,21,23,25,27,29,-1,31,33,-1,-1,-1,-1,-1,-1,-1,-1,-1,-1,-1,-1,-1,-1],"loss_changes":[3.118905E-1,0E0,3.225815E-1,6.763471E-1,2.9945487E-1,0E0,6.9001645E-1,0E0,4.1072264E-1,2.2053516E-1,2.3494695E-1,2.961651E-1,1.3498048E0,3.6792335E-1,1.9000119E-1,4.556728E-1,5.674071E-1,1.9273037E-1,0E0,1.8817353E-1,8.25876E-1,0E0,0E0,0E0,0E0,0E0,0E0,0E0,0E0,0E0,0E0,0E0,0E0,0E0,0E0],"parents":[2147483647,0,0,2,2,3,3,4,4,6,6,8,8,9,9,10,10,11,11,12,12,13,13,14,14,15,15,16,16,17,17,19,19,20,20],"right_children":[2,-1,4,6,8,-1,10,-1,12,14,16,18,20,22,24,26,28,30,-1,32,34,-1,-1,-1,-1,-1,-1,-1,-1,-1,-1,-1,-1,-1,-1],"split_conditions":[6.975E0,-1.0736694E-1,1E0,7.6292E0,4E0,1.9641885E-1,3E0,1.0068439E-1,1.9E1,2.8E1,8.6833E0,1E0,2.1E1,1.3365E2,4.8E1,2.8E1,1E0,1.7E1,3.5574574E-3,8.1125E0,1E0,8.497371E-2,-7.6410316E-2,1.9161795E-1,1.8164769E-2,2.2061404E-2,-1.1717249E-1,8.520889E-2,-4.5478374E-2,-2.9167993E-2,-1.9954728E-1,2.3901893E-1,4.413458E-2,-3.919136E-3,-1.3153152E-1],"split_indices":[5,0,1,5,2,0,0,0,2,2,5,4,2,5,2,2,3,2,0,5,4,0,0,0,0,0,0,0,0,0,0,0,0,0,0],"split_type":[0,0,0,0,0,0,0,0,0,0,0,0,0,0,0,0,0,0,0,0,0,0,0,0,0,0,0,0,0,0,0,0,0,0,0],"sum_hessian":[7.640376E1,1.3564428E0,7.504732E1,2.4448082E1,5.0599236E1,1.0550865E0,2.3392996E1,1.1181234E0,4.9481113E1,6.211786E0,1.718121E1,4.4239006E0,4.5057213E1,3.5915947E0,2.620191E0,7.0100594E0,1.017115E1,2.5919855E0,1.8319151E0,2.3655915E0,4.269162E1,2.5292957E0,1.0622991E0,1.5997972E0,1.020394E0,3.4424138E0,3.5676458E0,4.3577075E0,5.813443E0,1.3679595E0,1.224026E0,1.085815E0,1.2797766E0,3.8502884E1,4.1887383E0],"tree_param":{"num_deleted":"0","num_feature":"7","num_nodes":"35","size_leaf_vector":"1"}},{"base_weights":[3.7535594E-3,-2.729657E-2,1.5583539E-1,1.6719766E-4,-1.8168283E-1,-1.15043074E-1,3.768931E-1,-2.8918883E-2,5.1875687E-1,1.5559687E-1,-4.8634136E-1,2.237147E-1,-2.780412E-2,1.3868753E-2,-4.0026662E-1,2.2151127E-1,3.0564103E-2,5.0000805E-1,-1.1188926E-1,-3.514535E-2,-1.837456E-1,1.7601806E-1,-9.028823E-2,-3.4142498E-2,3.1250143E-1,-2.7009434E-1,4.0063836E-2,-1.2945294E-2,2.3212877E-1,-1.4362035E-2,9.4441615E-2,2.6936023E-3,-2.6488483E-1,1.5705894E-1,-1.5570867E-1,8.325527E-2,-6.092992E-2],"categories":[],"categories_nodes":[],"categories_segments":[],"categories_sizes":[],"default_left":[0,0,0,0,0,0,0,0,0,0,0,0,0,0,0,0,0,0,0,0,0,0,0,0,0,0,0,0,0,0,0,0,0,0,0,0,0],"id":20,"left_children":[1,3,5,7,-1,9,11,13,15,17,19,-1,21,23,25,-1,-1,27,-1,-1,-1,29,-1,31,33,-1,35,-1,-1,-1,-1,-1,-1,-1,-1,-1,-1],"loss_changes":[3.6576626E-1,1.0233779E0,8.295363E-1,9.5782834E-1,0E0,7.455215E-1,1.1347207E0,9.6102166E-1,2.3352343E-1,1.0262841E0,7.0415914E-2,0E0,3.0477467E-1,7.9762965E-1,1.4114388E0,0E0,0E0,5.122382E-1,0E0,0E0,0E0,1.15158126E-1,0E0,1.7716391E0,1.6229945E0,0E0,3.0342916E-1,0E0,0E0,0E0,0E0,0E0,0E0,0E0,0E0,0E0,0E0],"parents":[2147483647,0,0,1,1,2,2,3,3,5,5,6,6,7,7,8,8,9,9,10,10,12,12,13,13,14,14,17,17,21,21,23,23,24,24,26,26],"right_children":[2,4,6,8,-1,10,12,14,16,18,20,-1,22,24,26,-1,-1,28,-1,-1,-1,30,-1,32,34,-1,36,-1,-1,-1,-1,-1,-1,-1,-1,-1,-1],"split_conditions":[5.25542E1,3.96E1,3E1,3.13875E1,-1.8168283E-1,1.345E2,4.4E1,2.7E1,2E1,2.8E1,2.4E1,2.237147E-1,9E1,2.2025E1,2.97E1,2.2151127E-1,3.0564103E-2,2.2E1,-1.1188926E-1,-3.514535E-2,-1.837456E-1,7.79583E1,-9.028823E-2,2.1E1,5.2E1,-2.7009434E-1,2.85E1,-1.2945294E-2,2.3212877E-1,-1.4362035E-2,9.4441615E-2,2.6936023E-3,-2.6488483E-1,1.5705894E-1,-1.5570867E-1,8.325527E-2,-6.092992E-2],"split_indices":[5,5,2,5,0,5,2,5,2,2,2,0,5,5,5,0,0,2,0,0,0,5,0,5,2,0,2,0,0,0,0,0,0,0,0,0,0],"split_type":[0,0,0,0,0,0,0,0,0,0,0,0,0,0,0,0,0,0,0,0,0,0,0,0,0,0,0,0,0,0,0,0,0,0,0,0,0],"sum_hessian":[7.555659E1,6.342732E1,1.2129267E1,6.1506138E1,1.9211825E0,5.665943E0,6.4633236E0,5.9133743E1,2.372392E0,3.6132083E0,2.052735E0,2.9406755E0,3.522648E0,5.388736E1,5.2463865E0,1.0487198E0,1.3236723E0,2.2204077E0,1.3928006E0,1.0139321E0,1.038803E0,2.2210069E0,1.3016411E0,4.7186794E1,6.700562E0,1.9674631E0,3.2789233E0,1.0263634E0,1.1940442E0,1.1005921E0,1.1204147E0,4.5847088E1,1.3397064E0,5.639703E0,1.0608593E0,1.5874598E0,1.6914635E0],"tree_param":{"num_deleted":"0","num_feature":"7","num_nodes":"37","size_leaf_vector":"1"}},{"base_weights":[-2.6247136E-3,-1.3649446E-2,1.1807259E-1,6.7116613E-3,-1.4281192E-1,-1.0403213E-2,1.7821257E-1,2.884988E-1,-2.8975986E-2,-1.8679185E-2,1.6998632E-1,-2.6150474E-1,3.2995606E-3,2.824709E-2,-1.8493769E-1,4.68327E-2,-1.8140456E-2],"categories":[],"categories_nodes":[],"categories_segments":[],"categories_sizes":[],"default_left":[0,0,0,0,0,0,0,0,0,0,0,0,0,0,0,0,0],"id":21,"left_children":[1,3,-1,5,-1,7,-1,9,11,-1,-1,13,15,-1,-1,-1,-1],"loss_changes":[3.3710396E-1,7.079511E-1,0E0,7.3681796E-1,0E0,4.0589777E-1,0E0,4.5287025E-1,5.136743E-1,0E0,0E0,1.1110111E0,6.037319E-1,0E0,0E0,0E0,0E0],"parents":[2147483647,0,0,1,1,3,3,5,5,7,7,8,8,11,11,12,12],"right_children":[2,4,-1,6,-1,8,-1,10,12,-1,-1,14,16,-1,-1,-1,-1],"split_conditions":[2.62375E2,1.356333E2,1.1807259E-1,1.108833E2,-1.4281192E-1,6E0,1.7821257E-1,3E0,1.9E1,-1.8679185E-2,1.6998632E-1,1.15E1,2.8E1,2.824709E-2,-1.8493769E-1,4.68327E-2,-1.8140456E-2],"split_indices":[5,5,0,5,0,2,0,2,2,0,0,5,2,0,0,0,0],"split_type":[0,0,0,0,0,0,0,0,0,0,0,0,0,0,0,0,0],"sum_hessian":[7.494597E1,7.385638E1,1.0895917E0,7.168524E1,2.1711364E0,7.060995E1,1.0752953E0,3.2805643E0,6.7329384E1,1.7940584E0,1.486506E0,7.340755E0,5.998863E1,4.033725E0,3.30703E0,1.7236341E1,4.2752285E1],"tree_param":{"num_deleted":"0","num_feature":"7","num_nodes":"17","size_leaf_vector":"1"}},{"base_weights":[2.2256054E-4,1.3605842E-1,-3.3722367E-2,3.2910487E-1,2.9619383E-2,-1.3252357E-1,2.6509762E-2,1.8987013E-2,2.0591933E-1,-2.5674063E-1,2.0615406E-1,-2.2755717E-1,7.829424E-2,2.442848E-1,-3.9251417E-2,5.706779E-2,-4.1796815E-2,-1.9404568E-1,1.11879915E-1,4.039372E-1,-1.3378191E-1,-2.1206371E-2,-4.8531273E-1,1.7749482E-1,-1.8768804E-1,-2.4775276E-1,8.650834E-3,2.5354372E-3,2.2840694E-1,-1.0050013E-1,3.54438E-2,-1.8949915E-1,3.7635937E-1,-6.081414E-1,3.148628E-2,5.8180974E-3,-1.279141E-1,4.3663535E-2,-1.3296054E-1,2.5147976E-2,-2.2909988E-2,-1.8203709E-1,1.7286113E-2,3.1484222E-1,-1.144468E-1,-4.0408034E-2,-2.3973484E-1,-1.0974195E-1,1.684673E-1,9.6362166E-2,-1.6600454E-2],"categories":[],"categories_nodes":[],"categories_segments":[],"categories_sizes":[],"default_left":[0,0,0,0,0,0,0,0,0,0,0,0,0,0,0,0,0,0,0,0,0,0,0,0,0,0,0,0,0,0,0,0,0,0,0,0,0,0,0,0,0,0,0,0,0,0,0,0,0,0,0],"id":22,"left_children":[1,3,5,7,9,11,13,15,-1,17,19,21,23,-1,25,-1,-1,-1,-1,27,29,31,33,-1,35,-1,37,39,-1,-1,-1,41,43,45,-1,47,-1,49,-1,-1,-1,-1,-1,-1,-1,-1,-1,-1,-1,-1,-1],"loss_changes":[3.5349745E-1,3.0519867E-1,3.6856163E-1,5.796102E-1,6.0794234E-1,4.8661846E-1,2.0493927E0,1.3200453E-1,0E0,1.3790449E0,5.479746E-1,8.611829E-1,1.205391E0,0E0,1.3973856E0,0E0,0E0,0E0,0E0,7.000831E-1,2.1464083E-1,7.501279E-1,5.8868885E-1,0E0,2.8138804E-1,0E0,5.8522516E-1,2.7619885E-2,0E0,0E0,0E0,8.386053E-1,2.1104193E0,4.4747996E-1,0E0,1.0979116E0,0E0,9.5488983E-1,0E0,0E0,0E0,0E0,0E0,0E0,0E0,0E0,0E0,0E0,0E0,0E0,0E0],"parents":[2147483647,0,0,1,1,2,2,3,3,4,4,5,5,6,6,7,7,9,9,10,10,11,11,12,12,14,14,19,19,20,20,21,21,22,22,24,24,26,26,27,27,31,31,32,32,33,33,35,35,37,37],"right_children":[2,4,6,8,10,12,14,16,-1,18,20,22,24,-1,26,-1,-1,-1,-1,28,30,32,34,-1,36,-1,38,40,-1,-1,-1,42,44,46,-1,48,-1,50,-1,-1,-1,-1,-1,-1,-1,-1,-1,-1,-1,-1,-1],"split_conditions":[1E0,1.4E1,2.7E1,7.25E0,2.9125E1,1E0,2.8E1,2.3E1,2.0591933E-1,1E0,9.35E1,8.1125E0,1.87875E1,2.442848E-1,7.7333E0,5.706779E-2,-4.1796815E-2,-1.9404568E-1,1.11879915E-1,4.7E1,1.465208E2,7.925E0,2.54667E1,1.7749482E-1,3.96E1,-2.4775276E-1,2E0,4.15792E1,2.2840694E-1,-1.0050013E-1,3.54438E-2,2.1E1,2.1E1,2E1,3.148628E-2,3.13875E1,-1.279141E-1,1E0,-1.3296054E-1,2.5147976E-2,-2.2909988E-2,-1.8203709E-1,1.7286113E-2,3.1484222E-1,-1.144468E-1,-4.0408034E-2,-2.3973484E-1,-1.0974195E-1,1.684673E-1,9.6362166E-2,-1.6600454E-2],"split_indices":[6,5,2,5,5,4,2,2,0,4,5,5,5,0,5,0,0,0,0,2,5,5,5,0,5,0,4,5,0,0,0,2,2,2,0,5,0,1,0,0,0,0,0,0,0,0,0,0,0,0,0],"split_type":[0,0,0,0,0,0,0,0,0,0,0,0,0,0,0,0,0,0,0,0,0,0,0,0,0,0,0,0,0,0,0,0,0,0,0,0,0,0,0,0,0,0,0,0,0,0,0,0,0,0,0],"sum_hessian":[7.46699E1,1.4327597E1,6.03423E1,4.3486238E0,9.978973E0,2.2399416E1,3.7942883E1,2.8917906E0,1.4568332E0,3.6324222E0,6.346551E0,1.538478E1,7.0146365E0,2.046371E0,3.589651E1,1.29232E0,1.5994705E0,2.2261252E0,1.4062971E0,3.8931475E0,2.4534035E0,9.145478E0,6.239301E0,1.9761682E0,5.0384684E0,1.1283296E0,3.4768185E1,2.3081074E0,1.5850401E0,1.180652E0,1.2727513E0,6.7932096E0,2.352269E0,5.1395335E0,1.0997677E0,3.321432E0,1.7170362E0,3.3106247E1,1.6619357E0,1.1061013E0,1.2020061E0,1.9853145E0,4.807895E0,1.0419823E0,1.3102865E0,1.9674059E0,3.1721277E0,2.1952372E0,1.126195E0,8.113984E0,2.4992264E1],"tree_param":{"num_deleted":"0","num_feature":"7","num_nodes":"51","size_leaf_vector":"1"}},{"base_weights":[6.819856E-4,-7.095174E-2,5.395557E-2,-7.0564584E-3,-4.1621295E-1,4.087299E-1,-1.7400809E-2,-9.289239E-2,4.3139273E-1,-2.3331797E-1,-1.2998205E-3,6.1358776E-2,5.901502E-1,-1.7112304E-1,2.5722891E-2,5.8020737E-2,-3.131007E-1,1.935959E-1,5.546223E-3,7.2744496E-2,-7.482959E-2,1.5657687E-1,-1.607554E-1,3.2314293E-2,2.2288239E-1,1.7309667E-1,-3.995019E-2,-1.1427972E-1,2.4191475E-1,-3.5174508E-2,-2.0898376E-1,-3.6713272E-2,3.488586E-1,-2.2996846E-1,2.0856332E-2,-5.6859452E-2,9.098127E-2,-1.04106046E-1,4.4532977E-2,-1.1967947E-1,6.0920715E-2,1.4282088E-1,-2.2884574E-2,1.1452086E-1,-1.4907072E-1,1.06185995E-1,-1.5611819E-2],"categories":[],"categories_nodes":[],"categories_segments":[],"categories_sizes":[],"default_left":[0,0,0,0,0,0,0,0,0,0,0,0,0,0,0,0,0,0,0,0,0,0,0,0,0,0,0,0,0,0,0,0,0,0,0,0,0,0,0,0,0,0,0,0,0,0,0],"id":23,"left_children":[1,3,5,7,9,11,13,15,17,-1,19,21,23,-1,25,27,29,-1,-1,-1,-1,-1,-1,-1,-1,31,33,35,-1,37,-1,39,41,43,45,-1,-1,-1,-1,-1,-1,-1,-1,-1,-1,-1,-1],"loss_changes":[2.872646E-1,7.054148E-1,1.0997951E0,1.0980726E0,7.48533E-1,4.2185223E-1,8.945193E-1,8.267957E-1,4.1027087E-1,0E0,2.6181582E-1,1.2725486E0,2.6338124E-1,0E0,3.4742573E-1,2.0626147E0,1.0468098E0,0E0,0E0,0E0,0E0,0E0,0E0,0E0,0E0,4.1965467E-1,2.953828E-1,4.753084E-1,0E0,4.455151E-1,0E0,5.963988E-1,3.661468E-1,1.1987951E0,5.0330526E-1,0E0,0E0,0E0,0E0,0E0,0E0,0E0,0E0,0E0,0E0,0E0,0E0],"parents":[2147483647,0,0,1,1,2,2,3,3,4,4,5,5,6,6,7,7,8,8,10,10,11,11,12,12,14,14,15,15,16,16,25,25,26,26,27,27,29,29,31,31,32,32,33,33,34,34],"right_children":[2,4,6,8,10,12,14,16,18,-1,20,22,24,-1,26,28,30,-1,-1,-1,-1,-1,-1,-1,-1,32,34,36,-1,38,-1,40,42,44,46,-1,-1,-1,-1,-1,-1,-1,-1,-1,-1,-1,-1],"split_conditions":[1.05E1,3.25E1,1.4E1,2.9E1,3.9E1,2.7E1,1.52458E1,2.8E1,3.2E1,-2.3331797E-1,4.5E1,2.2E1,1.2475E1,-1.7112304E-1,1E0,2.6E1,7.8875E0,1.935959E-1,5.546223E-3,7.2744496E-2,-7.482959E-2,1.5657687E-1,-1.607554E-1,3.2314293E-2,2.2288239E-1,2.8E1,2.62875E1,1E0,2.4191475E-1,7.7333E0,-2.0898376E-1,2.16792E1,2E0,2E0,2.7E1,-5.6859452E-2,9.098127E-2,-1.04106046E-1,4.4532977E-2,-1.1967947E-1,6.0920715E-2,1.4282088E-1,-2.2884574E-2,1.1452086E-1,-1.4907072E-1,1.06185995E-1,-1.5611819E-2],"split_indices":[5,2,5,2,2,2,5,2,2,0,2,2,5,0,1,2,5,0,0,0,0,0,0,0,0,2,5,3,0,5,0,5,4,6,5,0,0,0,0,0,0,0,0,0,0,0,0],"split_type":[0,0,0,0,0,0,0,0,0,0,0,0,0,0,0,0,0,0,0,0,0,0,0,0,0,0,0,0,0,0,0,0,0,0,0,0,0,0,0,0,0,0,0,0,0,0,0],"sum_hessian":[7.327217E1,3.1109413E1,4.2162758E1,2.7112345E1,3.9970696E0,6.2685184E0,3.5894238E1,2.3332613E1,3.7797308E0,1.6686999E0,2.3283696E0,2.6097536E0,3.6587648E0,1.7120439E0,3.4182194E1,1.428164E1,9.050973E0,2.1189988E0,1.6607322E0,1.1859682E0,1.1424015E0,1.5446191E0,1.0651344E0,1.2901406E0,2.368624E0,1.0032659E1,2.4149536E1,1.2297578E1,1.9840622E0,5.880886E0,3.1700873E0,4.933991E0,5.0986676E0,5.180059E0,1.8969477E1,1.0882415E1,1.415163E0,1.8496476E0,4.0312386E0,1.7008861E0,3.2331047E0,3.8321996E0,1.2664679E0,1.4430636E0,3.7369955E0,2.7136848E0,1.625579E1],"tree_param":{"num_deleted":"0","num_feature":"7","num_nodes":"47","size_leaf_vector":"1"}},{"base_weights":[4.245628E-4,1.2619235E-1,-3.1012923E-2,2.2938971E-1,-8.7565385E-2,-7.666044E-2,5.9029937E-2,3.2824755E-1,-5.224276E-2,-2.3441592E-1,3.3271563E-1,-3.9268367E-2,-2.2895527E-1,1.3551196E-1,-1.22499995E-1,-2.0811057E-2,4.2768005E-1,1.4460793E-1,-1.4516423E-2,-5.882257E-2,1.0295501E-1,4.042327E-2,2.2120112E-1,-2.7249547E-2,5.377754E-1,-2.5525548E-2,-1.7203848E-1,1.2705673E-1,-1.3087614E-1,1.820859E-1,4.4640653E-2,-1.5993174E-2,9.813861E-2,-3.9863256E-3,1.438131E-1],"categories":[],"categories_nodes":[],"categories_segments":[],"categories_sizes":[],"default_left":[0,0,0,0,0,0,0,0,0,0,0,0,0,0,0,0,0,0,0,0,0,0,0,0,0,0,0,0,0,0,0,0,0,0,0],"id":24,"left_children":[1,3,5,7,9,11,13,15,-1,-1,17,19,-1,21,-1,-1,23,-1,-1,25,-1,27,-1,-1,29,31,-1,33,-1,-1,-1,-1,-1,-1,-1],"loss_changes":[2.9312846E-1,3.4712023E-1,2.4835624E-1,4.6703827E-1,1.8785566E0,9.917486E-1,7.888817E-1,3.696559E-1,0E0,0E0,2.5993314E-1,3.1035104E-1,0E0,1.0223978E0,0E0,0E0,4.4951546E-1,0E0,0E0,6.3251793E-1,0E0,7.5481516E-1,0E0,0E0,6.9355726E-2,3.752575E-1,0E0,7.532884E-1,0E0,0E0,0E0,0E0,0E0,0E0,0E0],"parents":[2147483647,0,0,1,1,2,2,3,3,4,4,5,5,6,6,7,7,10,10,11,11,13,13,16,16,19,19,21,21,24,24,25,25,27,27],"right_children":[2,4,6,8,10,12,14,16,-1,-1,18,20,-1,22,-1,-1,24,-1,-1,26,-1,28,-1,-1,30,32,-1,34,-1,-1,-1,-1,-1,-1,-1],"split_conditions":[1E0,3E1,2.16792E1,7.965E1,3.05E1,2.1E1,5.4E1,1.9E1,-5.224276E-2,-2.3441592E-1,9E1,5.3E1,-2.2895527E-1,4.8E1,-1.22499995E-1,-2.0811057E-2,7.2292E0,1.4460793E-1,-1.4516423E-2,4.5E1,1.0295501E-1,4.3E1,2.2120112E-1,-2.7249547E-2,2.415E1,3.9E1,-1.7203848E-1,3.2E1,-1.3087614E-1,1.820859E-1,4.4640653E-2,-1.5993174E-2,9.813861E-2,-3.9863256E-3,1.438131E-1],"split_indices":[6,2,5,5,5,5,2,2,0,0,5,2,0,2,0,0,5,0,0,2,0,2,0,0,5,2,0,2,0,0,0,0,0,0,0],"split_type":[0,0,0,0,0,0,0,0,0,0,0,0,0,0,0,0,0,0,0,0,0,0,0,0,0,0,0,0,0,0,0,0,0,0,0],"sum_hessian":[7.214816E1,1.3825249E1,5.832291E1,9.274569E0,4.55068E0,3.8801163E1,1.9521751E1,7.5994177E0,1.6751509E0,1.3925647E0,3.1581154E0,3.7799576E1,1.0015857E0,1.7386562E1,2.1351874E0,1.5807079E0,6.0187097E0,2.07884E0,1.0792754E0,3.676598E1,1.0335952E0,1.5935857E1,1.4507061E0,1.0847723E0,4.9339375E0,3.55176E1,1.2483811E0,1.41056795E1,1.8301771E0,3.7131662E0,1.2207712E0,3.371044E1,1.8071586E0,1.0775582E1,3.330098E0],"tree_param":{"num_deleted":"0","num_feature":"7","num_nodes":"35","size_leaf_vector":"1"}},{"base_weights":[-1.9385333E-3,-1.2600444E-2,1.1289316E-1,4.3272795E-3,-1.147837E-1,-1.121354E-2,1.558541E-1,-2.406093E-2,9.8280706E-2,2.365059E-3,-3.3748257E-1,-3.4351957E-3,1.0471221E-1,-1.5108825E-1,2.0290792E-2],"categories":[],"categories_nodes":[],"categories_segments":[],"categories_sizes":[],"default_left":[0,0,0,0,0,0,0,0,0,0,0,0,0,0,0],"id":25,"left_children":[1,3,-1,5,-1,7,-1,9,-1,11,13,-1,-1,-1,-1],"loss_changes":[2.983118E-1,4.5116228E-1,0E0,5.6319815E-1,0E0,3.063002E-1,0E0,5.555841E-1,0E0,3.0462676E-1,3.8510704E-1,0E0,0E0,0E0,0E0],"parents":[2147483647,0,0,1,1,3,3,5,5,7,7,9,9,10,10],"right_children":[2,4,-1,6,-1,8,-1,10,-1,12,14,-1,-1,-1,-1],"split_conditions":[2.62375E2,1.356333E2,1.1289316E-1,1.108833E2,-1.147837E-1,6.2E1,1.558541E-1,5E1,9.8280706E-2,4.7E1,5.6E1,-3.4351957E-3,1.0471221E-1,-1.5108825E-1,2.0290792E-2],"split_indices":[5,5,0,5,0,2,0,2,0,2,2,0,0,0,0],"split_type":[0,0,0,0,0,0,0,0,0,0,0,0,0,0,0],"sum_hessian":[7.179456E1,7.076652E1,1.0280468E0,6.8615715E1,2.1508048E0,6.755609E1,1.0596244E0,6.598309E1,1.572995E0,6.176764E1,4.2154536E0,6.0330326E1,1.437313E0,2.8170006E0,1.3984528E0],"tree_param":{"num_deleted":"0","num_feature":"7","num_nodes":"15","size_leaf_vector":"1"}},{"base_weights":[1.606109E-3,5.969806E-2,-3.791497E-2,-2.9957215E-3,5.3494495E-1,-6.889108E-2,1.2626468E-1,2.5273317E-1,-6.815798E-2,3.4210068E-1,-7.8572966E-2,-2.3943016E-2,-3.3687013E-1,4.081546E-4,4.3036115E-1,-1.18042774E-1,-2.5349734E-2,-1.241556E-1,1.3049149E-2,-2.09661E-1,-7.173759E-2,4.7090603E-3,-3.960438E-3,3.7260763E-2,1.5820357E-1,9.2116244E-2,-7.6626845E-2,2.3642898E-1,-3.4270715E-2,9.1204874E-2,-1.05244E-1,-5.954599E-2,4.0455982E-2,1.2391355E-1,-7.705072E-2,-9.550402E-2,1.9807262E-2],"categories":[],"categories_nodes":[],"categories_segments":[],"categories_sizes":[],"default_left":[0,0,0,0,0,0,0,0,0,0,0,0,0,0,0,0,0,0,0,0,0,0,0,0,0,0,0,0,0,0,0,0,0,0,0,0,0],"id":26,"left_children":[1,3,5,7,9,11,-1,13,15,-1,-1,17,19,21,23,-1,25,-1,27,-1,29,-1,-1,-1,-1,-1,31,33,35,-1,-1,-1,-1,-1,-1,-1,-1],"loss_changes":[1.6926393E-1,8.9065653E-1,6.529043E-1,4.7308066E-1,1.978955E0,4.9763417E-1,0E0,2.5832206E-1,3.0459824E-1,0E0,0E0,5.395027E-1,5.213101E-1,9.112762E-4,3.497547E-2,0E0,3.8198805E-1,0E0,3.7584874E-1,0E0,5.8390635E-1,0E0,0E0,0E0,0E0,0E0,5.169345E-1,6.469323E-1,8.6385983E-1,0E0,0E0,0E0,0E0,0E0,0E0,0E0,0E0],"parents":[2147483647,0,0,1,1,2,2,3,3,4,4,5,5,7,7,8,8,11,11,12,12,13,13,14,14,16,16,18,18,20,20,26,26,27,27,28,28],"right_children":[2,4,6,8,10,12,-1,14,16,-1,-1,18,20,22,24,-1,26,-1,28,-1,30,-1,-1,-1,-1,-1,32,34,36,-1,-1,-1,-1,-1,-1,-1,-1],"split_conditions":[2.8E1,2.7E1,1.13275E2,1E0,1.2525E1,1E0,1.2626468E-1,1.505E1,2E0,3.4210068E-1,-7.8572966E-2,7.7333E0,2.85E1,1.9E1,1.9E1,-1.18042774E-1,7.6292E0,-1.241556E-1,7.8875E0,-2.09661E-1,1E0,4.7090603E-3,-3.960438E-3,3.7260763E-2,1.5820357E-1,9.2116244E-2,1E0,3E1,8.6833E0,9.1204874E-2,-1.05244E-1,-5.954599E-2,4.0455982E-2,1.2391355E-1,-7.705072E-2,-9.550402E-2,1.9807262E-2],"split_indices":[2,2,5,6,5,4,0,5,6,0,0,5,2,2,2,0,5,0,5,0,1,0,0,0,0,0,4,2,5,0,0,0,0,0,0,0,0],"split_type":[0,0,0,0,0,0,0,0,0,0,0,0,0,0,0,0,0,0,0,0,0,0,0,0,0,0,0,0,0,0,0,0,0,0,0,0,0],"sum_hessian":[7.1739944E1,2.8839008E1,4.2900936E1,2.635588E1,2.4831276E0,4.0983727E1,1.9172094E0,4.767466E0,2.1588413E1,1.1661379E0,1.3169897E0,3.6029804E1,4.953923E0,2.3836827E0,2.3837836E0,1.5578748E0,2.0030539E1,2.2393022E0,3.37905E1,1.4027483E0,3.5511749E0,1.0503638E0,1.333319E0,1.1221231E0,1.2616605E0,2.0103452E0,1.8020193E1,5.2081804E0,2.8582321E1,1.4753555E0,2.0758195E0,1.1471493E1,6.5487013E0,3.9547794E0,1.253401E0,6.8907647E0,2.1691557E1],"tree_param":{"num_deleted":"0","num_feature":"7","num_nodes":"37","size_leaf_vector":"1"}},{"base_weights":[2.89188E-3,-7.1328156E-2,1.3135213E-2,2.9947498E-1,-3.369367E-3,1.5447533E-1,-9.326949E-3,-1.2708007E-1,2.8670106E-2,-4.885803E-2,-1.2443138E-1,3.54995E-1,-1.6693363E-3,-1.4016445E-1,2.1356985E-1,1.2760735E-1,3.847354E-2,-2.3055429E-2,2.4471572E-1,-4.102978E-3,-1.8080273E-1,-4.6326444E-2,1.2724689E-1,6.375001E-3,-7.776702E-2,-2.3318352E-2,1.5384206E-1],"categories":[],"categories_nodes":[],"categories_segments":[],"categories_sizes":[],"default_left":[0,0,0,0,0,0,0,0,0,0,0,0,0,0,0,0,0,0,0,0,0,0,0,0,0,0,0],"id":27,"left_children":[1,-1,3,5,7,-1,-1,9,11,13,-1,15,17,19,21,-1,-1,23,25,-1,-1,-1,-1,-1,-1,-1,-1],"loss_changes":[1.8005499E-1,0E0,3.3084282E-1,2.8768453E-1,2.6911837E-1,0E0,0E0,2.9393592E-1,5.353758E-1,3.201294E-1,0E0,1.8833697E-2,2.7129573E-1,5.5271053E-1,3.3845866E-1,0E0,0E0,5.004698E-1,3.9537817E-1,0E0,0E0,0E0,0E0,0E0,0E0,0E0,0E0],"parents":[2147483647,0,0,2,2,3,3,4,4,7,7,8,8,9,9,11,11,12,12,13,13,14,14,17,17,18,18],"right_children":[2,-1,4,6,8,-1,-1,10,12,14,-1,16,18,20,22,-1,-1,24,26,-1,-1,-1,-1,-1,-1,-1,-1],"split_conditions":[7.1417E0,-7.1328156E-2,7.25E0,2.45E1,7.925E0,1.5447533E-1,-9.326949E-3,7.8875E0,8.05E0,7.7958E0,-1.2443138E-1,3.2E1,5.6E1,3E1,2.45E1,1.2760735E-1,3.847354E-2,4.3E1,3E1,-4.102978E-3,-1.8080273E-1,-4.6326444E-2,1.2724689E-1,6.375001E-3,-7.776702E-2,-2.3318352E-2,1.5384206E-1],"split_indices":[5,0,5,2,5,0,0,5,5,5,0,2,2,2,2,0,0,2,5,0,0,0,0,0,0,0,0],"split_type":[0,0,0,0,0,0,0,0,0,0,0,0,0,0,0,0,0,0,0,0,0,0,0,0,0,0,0],"sum_hessian":[7.077526E1,1.9827255E0,6.8792534E1,2.814718E0,6.597781E1,1.3664533E0,1.4482648E0,1.2962129E1,5.3015686E1,1.1110939E1,1.85119E0,3.5994928E0,4.9416195E1,8.588603E0,2.5223355E0,2.078594E0,1.5208987E0,4.63035E1,3.1126943E0,7.552666E0,1.0359372E0,1.0151352E0,1.5072005E0,3.9755363E1,6.548138E0,1.7354594E0,1.3772348E0],"tree_param":{"num_deleted":"0","num_feature":"7","num_nodes":"27","size_leaf_vector":"1"}},{"base_weights":[2.5574723E-3,8.927835E-2,-1.9276556E-2,2.9409376E-1,-1.9023381E-2,-8.5373946E-2,-5.680071E-3,2.7209299E-2,1.791496E-1,-1.2309159E-1,7.577631E-2,1.2992346E-1,-2.3668671E-2,-1.7958533E-2,3.397852E-2,3.578855E-1,-7.2546184E-2,-2.8953399E-3,-2.4548607E-1,2.6866265E-2,1.4205505E-1,-1.2173963E-1,7.798158E-2,-2.1791818E-2,1.15811944E-1,4.3475717E-2,-1.5771076E-1,7.782608E-2,-8.187389E-2,2.0154887E-3,-1.8278651E-1],"categories":[],"categories_nodes":[],"categories_segments":[],"categories_sizes":[],"default_left":[0,0,0,0,0,0,0,0,0,0,0,0,0,0,0,0,0,0,0,0,0,0,0,0,0,0,0,0,0,0,0],"id":28,"left_children":[1,3,5,7,9,-1,11,13,-1,-1,15,-1,17,-1,-1,19,21,23,25,-1,-1,-1,27,29,-1,-1,-1,-1,-1,-1,-1],"loss_changes":[1.36844E-1,3.2791978E-1,2.0699386E-1,3.9519632E-1,4.1850394E-1,0E0,4.5249754E-1,3.4897167E-2,0E0,0E0,4.13072E-1,0E0,2.516825E-1,0E0,0E0,6.1738133E-2,3.7752068E-1,3.8394085E-1,5.879964E-1,0E0,0E0,0E0,4.2658877E-1,8.361266E-1,0E0,0E0,0E0,0E0,0E0,0E0,0E0],"parents":[2147483647,0,0,1,1,2,2,3,3,4,4,6,6,7,7,10,10,12,12,15,15,16,16,17,17,18,18,22,22,23,23],"right_children":[2,4,6,8,10,-1,12,14,-1,-1,16,-1,18,-1,-1,20,22,24,26,-1,-1,-1,28,30,-1,-1,-1,-1,-1,-1,-1],"split_conditions":[1E0,1.4E1,3E0,7.25E0,1.55E1,-8.5373946E-2,6E0,2.6E1,1.791496E-1,-1.2309159E-1,2.7E1,1.2992346E-1,2E0,-1.7958533E-2,3.397852E-2,1E0,2.9125E1,8.65E1,3E0,2.6866265E-2,1.4205505E-1,-1.2173963E-1,9E1,5.79792E1,1.15811944E-1,4.3475717E-2,-1.5771076E-1,7.782608E-2,-8.187389E-2,2.0154887E-3,-1.8278651E-1],"split_indices":[6,5,2,5,5,0,2,2,0,0,2,0,4,0,0,4,5,5,0,0,0,0,5,5,0,0,0,0,0,0,0],"split_type":[0,0,0,0,0,0,0,0,0,0,0,0,0,0,0,0,0,0,0,0,0,0,0,0,0,0,0,0,0,0,0],"sum_hessian":[7.036279E1,1.3531024E1,5.683177E1,4.0867815E0,9.4442425E0,1.7989584E0,5.5032814E1,2.7526124E0,1.3341688E0,1.1928155E0,8.251427E0,1.2586266E0,5.3774185E1,1.5194913E0,1.2331212E0,2.356493E0,5.894934E0,5.009574E1,3.6784434E0,1.2440531E0,1.1124398E0,1.3065438E0,4.5883904E0,4.867484E1,1.4209044E0,1.7387718E0,1.9396716E0,3.1963348E0,1.3920554E0,4.7364872E1,1.3099647E0],"tree_param":{"num_deleted":"0","num_feature":"7","num_nodes":"31","size_leaf_vector":"1"}},{"base_weights":[1.2106348E-3,6.7290224E-2,-2.9937645E-2,2.7679595E-1,-1.1378931E-2,1.0020806E-1,-4.466712E-2,9.8331176E-2,1.3071097E-1,9.256578E-2,-7.4046135E-2,-1.0216079E-2,-2.55549E-1,1.0218933E-1,-4.16614E-2,1.11098245E-1,-1.538772E-1,-4.138869E-1,2.2998124E-2,-7.1821526E-2,-1.5677744E-1,-2.2623736E-2,1.1484534E-1,-3.9620206E-2,-3.8211268E-1,-2.8047098E-2,-1.5631968E-1,1.6275495E-1,-3.0315634E-2,-3.4472436E-1,1.0196683E-1,-7.351783E-2,1.2171342E-1,-3.2225322E-2,-1.3578697E-1,-6.955752E-4,2.2285324E-1,-7.183732E-2,4.8411638E-3,3.1566643E-4,-1.4556654E-1],"categories":[],"categories_nodes":[],"categories_segments":[],"categories_sizes":[],"default_left":[0,0,0,0,0,0,0,0,0,0,0,0,0,0,0,0,0,0,0,0,0,0,0,0,0,0,0,0,0,0,0,0,0,0,0,0,0,0,0,0,0],"id":29,"left_children":[1,3,5,7,9,-1,11,13,-1,-1,15,17,19,-1,-1,21,23,25,27,29,-1,-1,-1,31,33,-1,-1,35,37,39,-1,-1,-1,-1,-1,-1,-1,-1,-1,-1,-1],"loss_changes":[1.4829996E-1,3.8349414E-1,2.7758422E-1,1.369341E-1,3.7847212E-1,0E0,3.4590834E-1,2.931409E-1,0E0,0E0,2.482406E-1,5.7635015E-1,2.9093456E-1,0E0,0E0,2.9707682E-1,2.8074726E-1,6.346434E-2,3.0304793E-1,6.9304675E-1,0E0,0E0,0E0,8.932603E-1,2.2455096E-2,0E0,0E0,1.0747082E0,2.9342577E-1,1.7437062E-1,0E0,0E0,0E0,0E0,0E0,0E0,0E0,0E0,0E0,0E0,0E0],"parents":[2147483647,0,0,1,1,2,2,3,3,4,4,6,6,7,7,10,10,11,11,12,12,15,15,16,16,17,17,18,18,19,19,23,23,24,24,27,27,28,28,29,29],"right_children":[2,4,6,8,10,-1,12,14,-1,-1,16,18,20,-1,-1,22,24,26,28,30,-1,-1,-1,32,34,-1,-1,36,38,40,-1,-1,-1,-1,-1,-1,-1,-1,-1,-1,-1],"split_conditions":[1E0,3E0,4E0,2.8E1,7.7417E0,1.0020806E-1,1E0,2.4E1,1.3071097E-1,9.256578E-2,2E0,1.9E1,3.8E1,1.0218933E-1,-4.16614E-2,1.45E1,1.78E1,9.35E0,2.8E1,4.71E1,-1.5677744E-1,-2.2623736E-2,1.1484534E-1,1.11333E1,9E0,-2.8047098E-2,-1.5631968E-1,2.7E1,7.8542E0,2.54667E1,1.0196683E-1,-7.351783E-2,1.2171342E-1,-3.2225322E-2,-1.3578697E-1,-6.955752E-4,2.2285324E-1,-7.183732E-2,4.8411638E-3,3.1566643E-4,-1.4556654E-1],"split_indices":[1,0,2,2,5,0,4,2,0,0,6,2,2,0,0,5,5,5,2,5,0,0,0,5,2,0,0,2,5,5,0,0,0,0,0,0,0,0,0,0,0],"split_type":[0,0,0,0,0,0,0,0,0,0,0,0,0,0,0,0,0,0,0,0,0,0,0,0,0,0,0,0,0,0,0,0,0,0,0,0,0,0,0,0,0],"sum_hessian":[7.007218E1,2.207686E1,4.7995323E1,5.3392615E0,1.6737598E1,1.0236458E0,4.697168E1,3.2773485E0,2.061913E0,2.0988388E0,1.463876E1,4.1276867E1,5.6948137E0,1.4055543E0,1.8717943E0,4.292324E0,1.0346436E1,2.2667415E0,3.9010124E1,4.1254325E0,1.569381E0,2.973648E0,1.318676E0,7.676897E0,2.6695385E0,1.0375142E0,1.2292273E0,1.0205257E1,2.8804867E1,2.578786E0,1.5466467E0,5.5611544E0,2.1157427E0,1.0606982E0,1.6088403E0,8.719881E0,1.4853768E0,4.4799914E0,2.4324875E1,1.0318422E0,1.5469437E0],"tree_param":{"num_deleted":"0","num_feature":"7","num_nodes":"41","size_leaf_vector":"1"}},{"base_weights":[2.5989253E-3,1.4287264E-2,-1.9170946E-1,-8.987507E-4,3.09205E-1,3.7602354E-2,-1.3621612E-1,1.5350561E-2,-2.57553E-1,1.705949E-1,-2.8750237E-2,-1.1029908E-2,1.3556544E-1,-1.6876903E-1,8.98125E-2,1.44466935E-2,-1.6364555E-1,-2.1173551E-3,1.1445663E-1],"categories":[],"categories_nodes":[],"categories_segments":[],"categories_sizes":[],"default_left":[0,0,0,0,0,0,0,0,0,0,0,0,0,0,0,0,0,0,0],"id":30,"left_children":[1,3,5,7,9,-1,-1,11,13,-1,-1,15,-1,-1,-1,17,-1,-1,-1],"loss_changes":[1.614709E-1,2.9969996E-1,3.925275E-1,2.7327704E-1,3.9884737E-1,0E0,0E0,7.152609E-1,8.311485E-1,0E0,0E0,8.131204E-1,0E0,0E0,0E0,4.5597157E-1,0E0,0E0,0E0],"parents":[2147483647,0,0,1,1,2,2,3,3,4,4,7,7,8,8,11,11,15,15],"right_children":[2,4,6,8,10,-1,-1,12,14,-1,-1,16,-1,-1,-1,18,-1,-1,-1],"split_conditions":[1.356333E2,8.65E1,2E0,6.1175E1,4.2E1,3.7602354E-2,-1.3621612E-1,5.25542E1,4.7E1,1.705949E-1,-2.8750237E-2,3.70042E1,1.3556544E-1,-1.6876903E-1,8.98125E-2,3.13875E1,-1.6364555E-1,-2.1173551E-3,1.1445663E-1],"split_indices":[5,5,4,5,2,0,0,5,2,0,0,5,0,0,0,5,0,0,0],"split_type":[0,0,0,0,0,0,0,0,0,0,0,0,0,0,0,0,0,0,0],"sum_hessian":[6.8890785E1,6.58558E1,3.0349886E0,6.357892E1,2.276877E0,1.6106716E0,1.424317E0,6.067749E1,2.9014275E0,1.1416588E0,1.1352183E0,5.81388E1,2.5386887E0,1.8681738E0,1.0332538E0,5.6422215E1,1.716585E0,5.422623E1,2.1959867E0],"tree_param":{"num_deleted":"0","num_feature":"7","num_nodes":"19","size_leaf_vector":"1"}},{"base_weights":[2.2875152E-3,-6.439634E-2,1.148236E-2,1.03499055E-1,1.998285E-4,1.2684217E-1,-3.1325318E-2,3.5046273E-1,-1.7846662E-1,-2.2566433E-1,1.1028887E-2,-3.1762913E-2,5.070113E-1,6.899339E-2,-4.369131E-1,-4.1149113E-1,2.2418018E-1,6.968909E-2,-1.5293016E-1,2.806996E-1,5.878268E-2,-6.313223E-2,1.0392707E-1,-5.0788736E-3,-1.8771935E-1,-1.7054768E-2,-2.0163523E-1,1.0525856E-1,-7.5652837E-3,1.5819615E-1,1.7756437E-3,-1.6985184E-1,5.265693E-2],"categories":[],"categories_nodes":[],"categories_segments":[],"categories_sizes":[],"default_left":[0,0,0,0,0,0,0,0,0,0,0,0,0,0,0,0,0,0,0,0,0,0,0,0,0,0,0,0,0,0,0,0,0],"id":31,"left_children":[1,-1,3,-1,5,7,9,11,13,15,17,-1,19,21,23,25,27,29,31,-1,-1,-1,-1,-1,-1,-1,-1,-1,-1,-1,-1,-1,-1],"loss_changes":[1.4133646E-1,0E0,2.5481847E-1,0E0,2.6955402E-1,9.8128164E-1,4.4749784E-1,6.326888E-1,4.363758E-1,9.0485483E-1,4.467658E-1,0E0,6.443701E-1,3.91407E-1,2.4660307E-1,6.302273E-1,1.1908239E-1,9.915172E-1,1.7635826E0,0E0,0E0,0E0,0E0,0E0,0E0,0E0,0E0,0E0,0E0,0E0,0E0,0E0,0E0],"parents":[2147483647,0,0,2,2,4,4,5,5,6,6,7,7,8,8,9,9,10,10,12,12,13,13,14,14,15,15,16,16,17,17,18,18],"right_children":[2,-1,4,-1,6,8,10,12,14,16,18,-1,20,22,24,26,28,30,32,-1,-1,-1,-1,-1,-1,-1,-1,-1,-1,-1,-1,-1,-1],"split_conditions":[7.1417E0,-6.439634E-2,7.2292E0,1.03499055E-1,2.1E1,1.6E1,2.6E1,7.925E0,9E0,1E0,1E0,-3.1762913E-2,8.1125E0,3.13875E1,2E0,1E0,2.45E1,2.8E1,2.2025E1,2.806996E-1,5.878268E-2,-6.313223E-2,1.0392707E-1,-5.0788736E-3,-1.8771935E-1,-1.7054768E-2,-2.0163523E-1,1.0525856E-1,-7.5652837E-3,1.5819615E-1,1.7756437E-3,-1.6985184E-1,5.265693E-2],"split_indices":[5,0,5,0,2,5,2,5,2,3,3,0,5,5,0,1,2,2,5,0,0,0,0,0,0,0,0,0,0,0,0,0,0],"split_type":[0,0,0,0,0,0,0,0,0,0,0,0,0,0,0,0,0,0,0,0,0,0,0,0,0,0,0,0,0,0,0,0,0],"sum_hessian":[6.861868E1,1.8815094E0,6.6737175E1,1.2159327E0,6.552124E1,1.2456729E1,5.3064514E1,7.104909E0,5.35182E0,8.720972E0,4.434354E1,1.8974692E0,5.20744E0,3.1085036E0,2.2433164E0,6.231892E0,2.4890804E0,3.308247E1,1.1261071E1,1.3454722E0,3.8619678E0,1.6689559E0,1.4395475E0,1.0337132E0,1.2096031E0,3.1558115E0,3.0760806E0,1.380844E0,1.1082364E0,3.1571202E0,2.9925348E1,4.666354E0,6.5947165E0],"tree_param":{"num_deleted":"0","num_feature":"7","num_nodes":"33","size_leaf_vector":"1"}},{"base_weights":[2.0462102E-3,7.30932E-2,-3.1098777E-2,-9.699179E-2,1.1661608E-1,7.673891E-2,-4.8460063E-2,-3.4681892E-3,2.8948683E-1,-1.294977E-2,-3.1217352E-1,7.103776E-2,-1.1742164E-1,5.3841877E-1,7.915635E-2,-1.1533019E-1,1.8054748E-2,-1.5057278E-1,-8.779065E-2,-6.8313435E-2,3.0084693E-1,1.9948833E-1,5.2648563E-2,-1.4505976E-1,1.08216055E-1,3.9799362E-2,-2.0557228E-1,7.560329E-2,-1.2525146E-1,7.876478E-2,-6.478446E-2,1.6039851E-1,-3.1098563E-2,-6.6448234E-2,4.5236554E-3,1.1986184E-3,1.15944214E-1,-1.2954241E-1,3.8516205E-2],"categories":[],"categories_nodes":[],"categories_segments":[],"categories_sizes":[],"default_left":[0,0,0,0,0,0,0,0,0,0,0,0,0,0,0,0,0,0,0,0,0,0,0,0,0,0,0,0,0,0,0,0,0,0,0,0,0,0,0],"id":32,"left_children":[1,3,5,-1,7,-1,9,11,13,15,17,19,-1,21,23,-1,25,-1,27,29,31,-1,-1,33,-1,35,37,-1,-1,-1,-1,-1,-1,-1,-1,-1,-1,-1,-1],"loss_changes":[1.649787E-1,4.2205602E-1,2.5055894E-1,0E0,4.329808E-1,0E0,4.2605084E-1,4.1128218E-1,4.0460265E-1,4.8516294E-1,1.8614018E-1,4.040822E-1,0E0,5.5039167E-2,4.1862115E-1,0E0,1.9917516E-1,0E0,5.1856637E-1,4.6067983E-1,5.0050604E-1,0E0,0E0,5.160497E-2,0E0,4.5318356E-1,3.3067498E-1,0E0,0E0,0E0,0E0,0E0,0E0,0E0,0E0,0E0,0E0,0E0,0E0],"parents":[2147483647,0,0,1,1,2,2,4,4,6,6,7,7,8,8,9,9,10,10,11,11,13,13,14,14,16,16,18,18,19,19,20,20,23,23,25,25,26,26],"right_children":[2,4,6,-1,8,-1,10,12,14,16,18,20,-1,22,24,-1,26,-1,28,30,32,-1,-1,34,-1,36,38,-1,-1,-1,-1,-1,-1,-1,-1,-1,-1,-1,-1],"split_conditions":[1E0,4E0,1E1,-9.699179E-2,1.55E1,7.673891E-2,1E0,1E0,2.45E1,1.9E1,4.71E1,8.6833E0,-1.1742164E-1,2E0,3.2E1,-1.1533019E-1,5.3E1,-1.5057278E-1,3.8E1,7.7417E0,1.3E1,1.9948833E-1,5.2648563E-2,2.16792E1,1.08216055E-1,4.8E1,6.2E1,7.560329E-2,-1.2525146E-1,7.876478E-2,-6.478446E-2,1.6039851E-1,-3.1098563E-2,-6.6448234E-2,4.5236554E-3,1.1986184E-3,1.15944214E-1,-1.2954241E-1,3.8516205E-2],"split_indices":[1,2,2,0,5,0,4,3,2,2,5,5,0,3,2,0,2,0,2,5,5,0,0,5,0,2,2,0,0,0,0,0,0,0,0,0,0,0,0],"split_type":[0,0,0,0,0,0,0,0,0,0,0,0,0,0,0,0,0,0,0,0,0,0,0,0,0,0,0,0,0,0,0,0,0,0,0,0,0,0,0],"sum_hessian":[6.809377E1,2.1278212E1,4.681556E1,1.4691373E0,1.9809074E1,1.8876951E0,4.4927864E1,1.2267454E1,7.5416203E0,4.0520668E1,4.407199E0,1.0976271E1,1.291183E0,2.7394893E0,4.802131E0,2.2432787E0,3.827739E1,1.7178011E0,2.6893976E0,7.2704E0,3.705871E0,1.4141697E0,1.3253196E0,2.9431977E0,1.8589332E0,3.563446E1,2.6429276E0,1.4404973E0,1.2489003E0,2.0030394E0,5.2673607E0,2.1445308E0,1.5613402E0,1.732929E0,1.2102689E0,3.32156E1,2.4188602E0,1.4009091E0,1.2420186E0],"tree_param":{"num_deleted":"0","num_feature":"7","num_nodes":"39","size_leaf_vector":"1"}},{"base_weights":[1.6055586E-3,3.4549247E-2,-8.226827E-2,5.7065785E-3,2.0415191E-1,-2.0211624E-1,5.954291E-3,3.401267E-2,-1.7294979E-1,3.0627993E-1,-5.1723983E-2,3.420316E-1,-6.523964E-2,1.0802159E-2,1.2121872E-1,1.1047601E-1,1.5211523E-1,1.2725855E-1,2.4734573E-2,-9.6458174E-2,-4.446205E-3,1.7563197E-1,-3.384933E-2,-9.190546E-2,1.3679196E-1,1.5861626E-1,-8.8774666E-2,-8.692986E-2,1.2063904E-1,1.20261304E-1,-1.9900158E-2,-1.5503782E-1,3.0458518E-3],"categories":[],"categories_nodes":[],"categories_segments":[],"categories_sizes":[],"default_left":[0,0,0,0,0,0,0,0,0,0,0,0,0,0,0,0,0,0,0,0,0,0,0,0,0,0,0,0,0,0,0,0,0],"id":33,"left_children":[1,3,5,7,9,-1,11,13,-1,15,-1,17,19,21,-1,23,-1,-1,-1,-1,25,27,29,-1,-1,-1,31,-1,-1,-1,-1,-1,-1],"loss_changes":[1.9167212E-1,2.4230614E-1,1.0250679E0,7.375778E-1,3.299019E-1,0E0,4.5345902E-1,3.605883E-1,0E0,1.8095946E-1,0E0,3.5624713E-2,2.4333115E-1,3.0777574E-1,0E0,7.633199E-1,0E0,0E0,0E0,0E0,6.634184E-1,1.0550067E0,4.941204E-1,0E0,0E0,0E0,5.427947E-1,0E0,0E0,0E0,0E0,0E0,0E0],"parents":[2147483647,0,0,1,1,2,2,3,3,4,4,6,6,7,7,9,9,11,11,12,12,13,13,15,15,20,20,21,21,22,22,26,26],"right_children":[2,4,6,8,10,-1,12,14,-1,16,-1,18,20,22,-1,24,-1,-1,-1,-1,26,28,30,-1,-1,-1,32,-1,-1,-1,-1,-1,-1],"split_conditions":[2.7E1,2.2025E1,2.97E1,2.0575E1,5.1E1,-2.0211624E-1,3.1E1,1.875E1,-1.7294979E-1,2.62875E1,-5.1723983E-2,3.25E1,3.55E1,2.1E1,1.2121872E-1,1E0,1.5211523E-1,1.2725855E-1,2.4734573E-2,-9.6458174E-2,3.96E1,7.925E0,7.225E0,-9.190546E-2,1.3679196E-1,1.5861626E-1,5.25542E1,-8.692986E-2,1.2063904E-1,1.20261304E-1,-1.9900158E-2,-1.5503782E-1,3.0458518E-3],"split_indices":[5,5,5,5,2,0,5,5,0,5,0,2,5,2,0,3,0,0,0,0,5,5,5,0,0,0,5,0,0,0,0,0,0],"split_type":[0,0,0,0,0,0,0,0,0,0,0,0,0,0,0,0,0,0,0,0,0,0,0,0,0,0,0,0,0,0,0,0,0],"sum_hessian":[6.733951E1,4.8771343E1,1.8568169E1,4.2566177E1,6.2051663E0,1.5487299E0,1.7019438E1,4.149054E1,1.0756365E0,5.028137E0,1.1770296E0,2.310114E0,1.4709324E1,4.0010185E1,1.4803551E0,3.3303938E0,1.6977432E0,1.2730318E0,1.0370822E0,1.9979008E0,1.2711423E1,7.9030147E0,3.210717E1,1.5607356E0,1.7696582E0,1.0162704E0,1.1695152E1,2.495678E0,5.407337E0,1.443906E0,3.0663263E1,1.4026251E0,1.0292527E1],"tree_param":{"num_deleted":"0","num_feature":"7","num_nodes":"33","size_leaf_vector":"1"}},{"base_weights":[1.645272E-3,7.630928E-2,-3.3071127E-2,-8.5679606E-2,1.1521666E-1,4.053727E-2,-1.07885875E-1,5.5594474E-2,4.0926018E-1,-9.952633E-2,1.2838511E-1,6.822361E-2,-1.4440405E-1,9.5934026E-2,-6.55993E-2,1.6357179E-1,2.7178375E-2,-1.9788808E-1,9.269159E-2,-3.5208676E-2,4.1882163E-1,-4.60519E-1,-7.563443E-2,4.8216213E-2,1.13091215E-1,1.9836242E-1,-3.6172926E-1,-2.5991932E-1,2.0194508E-1,3.0757093E-1,-1.03317276E-1,1.3830707E-2,-2.0325774E-1,-1.3842295E-1,9.528361E-2,4.452598E-2,-1.3695055E-2,7.0106843E-3,8.562424E-2,-7.011933E-3,-2.301976E-1,1.2955957E-2,-2.0443177E-1,1.2867048E-1,-4.237118E-2,-1.0283578E-1,6.493978E-2,-1.0661166E-1,2.0695436E-3],"categories":[],"categories_nodes":[],"categories_segments":[],"categories_sizes":[],"default_left":[0,0,0,0,0,0,0,0,0,0,0,0,0,0,0,0,0,0,0,0,0,0,0,0,0,0,0,0,0,0,0,0,0,0,0,0,0,0,0,0,0,0,0,0,0,0,0,0,0],"id":34,"left_children":[1,3,5,-1,7,9,11,13,15,17,19,-1,21,23,-1,-1,-1,25,-1,27,29,31,33,35,-1,37,39,41,43,-1,45,-1,-1,47,-1,-1,-1,-1,-1,-1,-1,-1,-1,-1,-1,-1,-1,-1,-1],"loss_changes":[1.7845066E-1,3.4049052E-1,2.6335207E-1,0E0,3.3552596E-1,3.1339115E-1,3.2175496E-1,2.2175995E-1,9.308034E-2,4.6216068E-1,7.4888855E-1,0E0,4.4103327E-1,2.0331402E-1,0E0,0E0,0E0,6.335366E-1,0E0,6.283708E-1,1.8932662E0,4.39627E-1,5.1742464E-1,1.5036003E-1,0E0,4.1728705E-2,8.7081355E-1,7.9422927E-1,5.1391095E-1,0E0,3.7604454E-1,0E0,0E0,5.457148E-1,0E0,0E0,0E0,0E0,0E0,0E0,0E0,0E0,0E0,0E0,0E0,0E0,0E0,0E0,0E0],"parents":[2147483647,0,0,1,1,2,2,4,4,5,5,6,6,7,7,8,8,9,9,10,10,12,12,13,13,17,17,19,19,20,20,21,21,22,22,23,23,25,25,26,26,27,27,28,28,30,30,33,33],"right_children":[2,4,6,-1,8,10,12,14,16,18,20,-1,22,24,-1,-1,-1,26,-1,28,30,32,34,36,-1,38,40,42,44,-1,46,-1,-1,48,-1,-1,-1,-1,-1,-1,-1,-1,-1,-1,-1,-1,-1,-1,-1],"split_conditions":[1E0,4E0,1.4E1,-8.5679606E-2,3.13875E1,2.7E1,1E1,3.65E1,2E0,1E0,8.1125E0,6.822361E-2,2.3E1,3.1E1,-6.55993E-2,1.6357179E-1,2.7178375E-2,7.25E0,9.269159E-2,2.9E1,3E1,1E0,3E0,8.05E0,1.13091215E-1,2E0,2.2E1,7.8E0,3.25E1,3.0757093E-1,4E1,1.3830707E-2,-2.0325774E-1,3.1E1,9.528361E-2,4.452598E-2,-1.3695055E-2,7.0106843E-3,8.562424E-2,-7.011933E-3,-2.301976E-1,1.2955957E-2,-2.0443177E-1,1.2867048E-1,-4.237118E-2,-1.0283578E-1,6.493978E-2,-1.0661166E-1,2.0695436E-3],"split_indices":[1,2,5,0,5,2,2,2,4,3,5,0,5,2,0,0,0,5,0,2,2,6,0,5,0,6,2,5,2,0,2,0,0,2,0,0,0,0,0,0,0,0,0,0,0,0,0,0,0],"split_type":[0,0,0,0,0,0,0,0,0,0,0,0,0,0,0,0,0,0,0,0,0,0,0,0,0,0,0,0,0,0,0,0,0,0,0,0,0,0,0,0,0,0,0,0,0,0,0,0,0],"sum_hessian":[6.687136E1,2.0844133E1,4.6027225E1,1.4078785E0,1.9436256E1,2.3431608E1,2.259562E1,1.7148237E1,2.2880192E0,8.980407E0,1.44512005E1,1.705835E0,2.0889784E1,1.5516228E1,1.6320089E0,1.1053452E0,1.1826739E0,7.65318E0,1.3272269E0,9.806359E0,4.644841E0,2.7146666E0,1.8175117E1,1.4265606E1,1.2506216E0,2.1771164E0,5.4760637E0,4.985986E0,4.820373E0,1.703202E0,2.9416392E0,1.0502708E0,1.6643958E0,1.6231483E1,1.9436345E0,6.6187806E0,7.6468253E0,1.1446208E0,1.0324957E0,3.5621092E0,1.9139547E0,3.422492E0,1.5634941E0,2.751168E0,2.0692053E0,1.6409138E0,1.3007255E0,5.931288E0,1.0300195E1],"tree_param":{"num_deleted":"0","num_feature":"7","num_nodes":"49","size_leaf_vector":"1"}},{"base_weights":[1.399231E-3,1.3788965E-2,-2.114093E-1,-7.183275E-2,2.5384909E-2,-1.2784961E-1,5.466694E-2,4.8372835E-2,-1.0595574E-1,2.9433781E-2,1.2254699E-1,-1.5251125E-1,5.5272583E-2,9.799062E-3,1.5151289E-1,-6.0136948E-2,9.187294E-2,1.1112117E-2,-1.0407587E-1,9.893151E-2,-6.1244655E-2],"categories":[],"categories_nodes":[],"categories_segments":[],"categories_sizes":[],"default_left":[0,0,0,0,0,0,0,0,0,0,0,0,0,0,0,0,0,0,0,0,0],"id":35,"left_children":[1,3,5,-1,7,-1,-1,9,11,13,-1,-1,15,17,-1,19,-1,-1,-1,-1,-1],"loss_changes":[1.798166E-1,1.9501285E-1,3.9487574E-1,0E0,1.9361061E-1,0E0,0E0,3.5501325E-1,6.517548E-1,4.8255867E-1,0E0,0E0,2.4331643E-1,5.0994235E-1,0E0,4.129173E-1,0E0,0E0,0E0,0E0,0E0],"parents":[2147483647,0,0,1,1,2,2,4,4,7,7,8,8,9,9,12,12,13,13,15,15],"right_children":[2,4,6,-1,8,-1,-1,10,12,14,-1,-1,16,18,-1,20,-1,-1,-1,-1,-1],"split_conditions":[1.356333E2,7.1417E0,2.475208E2,-7.183275E-2,4.5E1,-1.2784961E-1,5.466694E-2,4.2E1,4.8E1,8.31583E1,1.2254699E-1,-1.5251125E-1,7.12833E1,3.6E1,1.5151289E-1,1.05167E1,9.187294E-2,1.1112117E-2,-1.0407587E-1,9.893151E-2,-6.1244655E-2],"split_indices":[5,5,5,0,2,0,0,2,2,5,0,0,5,2,0,5,0,0,0,0,0],"split_type":[0,0,0,0,0,0,0,0,0,0,0,0,0,0,0,0,0,0,0,0,0],"sum_hessian":[6.6093506E1,6.334099E1,2.752514E0,1.9131404E0,6.142785E1,1.7274256E0,1.0250884E0,5.2815506E1,8.612345E0,5.1204334E1,1.6111717E0,1.8476423E0,6.7647023E0,5.0154396E1,1.0499363E0,5.154687E0,1.6100153E0,4.7428608E1,2.7257898E0,1.0424333E0,4.1122537E0],"tree_param":{"num_deleted":"0","num_feature":"7","num_nodes":"21","size_leaf_vector":"1"}},{"base_weights":[8.2188536E-4,1.8690972E-2,-1.2354957E-1,3.5963492E-3,1.0782721E-1,4.3662082E-2,-2.1415973E-1,2.0838609E-2,-2.8216746E-1,-3.085597E-1,4.9226666E-3,2.8650982E-3,9.682955E-2,-1.2601814E-1,-8.090017E-3,-1.766477E-1,-1.3823518E-2,1.788963E-2,-9.451902E-2,6.2191118E-2,-7.4239604E-2,1.20425045E-1,-5.1777187E-4],"categories":[],"categories_nodes":[],"categories_segments":[],"categories_sizes":[],"default_left":[0,0,0,0,0,0,0,0,0,0,0,0,0,0,0,0,0,0,0,0,0,0,0],"id":36,"left_children":[1,3,5,7,-1,-1,9,11,13,15,-1,17,-1,-1,-1,-1,19,21,-1,-1,-1,-1,-1],"loss_changes":[1.5099148E-1,3.0403852E-1,2.3929504E-1,2.9095536E-1,0E0,0E0,1.5285918E-1,3.002355E-1,1.0695022E-1,3.9400417E-1,0E0,2.6065215E-1,0E0,0E0,0E0,0E0,2.2680172E-1,3.9132413E-1,0E0,0E0,0E0,0E0,0E0],"parents":[2147483647,0,0,1,1,2,2,3,3,6,6,7,7,8,8,9,9,11,11,16,16,17,17],"right_children":[2,4,6,8,-1,-1,10,12,14,16,-1,18,-1,-1,-1,-1,20,22,-1,-1,-1,-1,-1],"split_conditions":[6.1175E1,5.64958E1,1E0,3.70042E1,1.0782721E-1,4.3662082E-2,4.7E1,3.13875E1,5.14792E1,8.65E1,4.9226666E-3,3E0,9.682955E-2,-1.2601814E-1,-8.090017E-3,-1.766477E-1,1.534625E2,1E1,-9.451902E-2,6.2191118E-2,-7.4239604E-2,1.20425045E-1,-5.1777187E-4],"split_indices":[5,5,1,5,0,0,2,5,5,5,0,3,0,0,0,0,5,2,0,0,0,0,0],"split_type":[0,0,0,0,0,0,0,0,0,0,0,0,0,0,0,0,0,0,0,0,0,0,0],"sum_hessian":[6.590152E1,5.836556E1,7.535963E0,5.685731E1,1.5082488E0,1.7456342E0,5.790329E0,5.4496227E1,2.361086E0,3.8683035E0,1.9220253E0,5.238714E1,2.1090868E0,1.1134527E0,1.2476332E0,1.4713674E0,2.3969362E0,5.092431E1,1.462829E0,1.2893635E0,1.1075726E0,1.5307392E0,4.939357E1],"tree_param":{"num_deleted":"0","num_feature":"7","num_nodes":"23","size_leaf_vector":"1"}},{"base_weights":[-2.4341833E-4,-5.9278715E-2,8.43526E-3,2.2903991E-1,-5.059934E-3,1.2894139E-1,-1.8956982E-2,-9.319453E-2,6.164221E-3,8.45683E-2,-2.4498701E-2,2.0600463E-1,-2.1475592E-1,-1.1747946E-1,1.281828E-1,9.417336E-2,-3.538673E-2,-1.9984312E-1,3.913656E-2,-2.0913105E-2,-1.3459985E-1,6.500631E-2,-7.2606634E-3],"categories":[],"categories_nodes":[],"categories_segments":[],"categories_sizes":[],"default_left":[0,0,0,0,0,0,0,0,0,0,0,0,0,0,0,0,0,0,0,0,0,0,0],"id":37,"left_children":[1,-1,3,5,7,-1,-1,-1,9,11,13,15,17,19,21,-1,-1,-1,-1,-1,-1,-1,-1],"loss_changes":[1.15581386E-1,0E0,1.9367915E-1,2.4713935E-1,2.1429022E-1,0E0,0E0,0E0,1.4801116E-1,6.7274696E-1,6.4557165E-1,4.848671E-1,9.408132E-1,4.136774E-1,2.3840812E-1,0E0,0E0,0E0,0E0,0E0,0E0,0E0,0E0],"parents":[2147483647,0,0,2,2,3,3,4,4,8,8,9,9,10,10,11,11,12,12,13,13,14,14],"right_children":[2,-1,4,6,8,-1,-1,-1,10,12,14,16,18,20,22,-1,-1,-1,-1,-1,-1,-1,-1],"split_conditions":[7.1417E0,-5.9278715E-2,7.25E0,2.45E1,7.65E0,1.2894139E-1,-1.8956982E-2,-9.319453E-2,2E0,3E1,3.1E1,2.415E1,3.05E1,2.85E1,4.5E1,9.417336E-2,-3.538673E-2,-1.9984312E-1,3.913656E-2,-2.0913105E-2,-1.3459985E-1,6.500631E-2,-7.2606634E-3],"split_indices":[5,0,5,2,5,0,0,0,6,2,2,5,5,2,2,0,0,0,0,0,0,0,0],"split_type":[0,0,0,0,0,0,0,0,0,0,0,0,0,0,0,0,0,0,0,0,0,0,0],"sum_hessian":[6.550951E1,1.8425332E0,6.3666977E1,2.7494829E0,6.0917496E1,1.3507373E0,1.3987454E0,1.2130929E0,5.97044E1,1.6290958E1,4.341344E1,1.1810988E1,4.4799705E0,2.7125174E1,1.6288269E1,8.883157E0,2.9278314E0,1.5385447E0,2.9414256E0,2.476382E1,2.3613527E0,1.0036889E1,6.2513795E0],"tree_param":{"num_deleted":"0","num_feature":"7","num_nodes":"23","size_leaf_vector":"1"}},{"base_weights":[-4.347834E-3,-1.4787209E-2,1.5978879E-1,7.414728E-3,-2.365113E-1,-3.0911904E-2,1.2542413E-1,1.2105595E-1,-1.866744E-2,-1.3386875E-1,-4.3499127E-2,3.4289688E-2,1.0103641E-1,4.8109554E-3,-2.882104E-1,-1.1776848E-1,7.1493335E-2,-9.689741E-2,1.7588745E-1,-2.021429E-2,1.0485199E-1,-2.6357824E-2,-1.0329735E-1,2.170495E-2,-1.1264834E-1,1.2160923E-1,-6.323747E-2,-1.2719061E-2,8.1489936E-2],"categories":[],"categories_nodes":[],"categories_segments":[],"categories_sizes":[],"default_left":[0,0,0,0,0,0,0,0,0,0,0,0,0,0,0,0,0,0,0,0,0,0,0,0,0,0,0,0,0],"id":38,"left_children":[1,3,5,7,9,-1,-1,11,13,-1,15,17,-1,19,21,-1,-1,23,25,27,-1,-1,-1,-1,-1,-1,-1,-1,-1],"loss_changes":[1.1569476E-1,3.1238312E-1,3.1732953E-1,1.7514323E-1,2.1430317E-1,0E0,0E0,1.9475698E-1,3.0708766E-1,0E0,4.983101E-1,1.8373501E-1,0E0,3.9885357E-1,1.34468675E-2,0E0,0E0,2.7720466E-1,4.9990386E-1,2.917731E-1,0E0,0E0,0E0,0E0,0E0,0E0,0E0,0E0,0E0],"parents":[2147483647,0,0,1,1,2,2,3,3,4,4,7,7,8,8,10,10,11,11,13,13,14,14,17,17,18,18,19,19],"right_children":[2,4,6,8,10,-1,-1,12,14,-1,16,18,-1,20,22,-1,-1,24,26,28,-1,-1,-1,-1,-1,-1,-1,-1,-1],"split_conditions":[5.6E1,4.55E1,3E1,1E0,1E0,-3.0911904E-2,1.2542413E-1,2.9E1,6.66E1,-1.3386875E-1,2.625E1,1.55E1,1.0103641E-1,5.25542E1,1E0,-1.1776848E-1,7.1493335E-2,1.38625E1,7.965E1,4.2E1,1.0485199E-1,-2.6357824E-2,-1.0329735E-1,2.170495E-2,-1.1264834E-1,1.2160923E-1,-6.323747E-2,-1.2719061E-2,8.1489936E-2],"split_indices":[2,2,5,6,6,0,0,2,5,0,5,5,0,5,1,0,0,5,5,2,0,0,0,0,0,0,0,0,0],"split_type":[0,0,0,0,0,0,0,0,0,0,0,0,0,0,0,0,0,0,0,0,0,0,0,0,0,0,0,0,0],"sum_hessian":[6.514123E1,6.210138E1,3.0398471E0,5.732755E1,4.7738304E0,1.804611E0,1.2352362E0,1.0021608E1,4.7305943E1,1.6591523E0,3.1146784E0,7.9736104E0,2.0479977E0,4.4419E1,2.8869421E0,1.2157713E0,1.8989071E0,4.302826E0,3.6707847E0,4.229006E1,2.1289437E0,1.1930342E0,1.6939079E0,3.1372552E0,1.1655707E0,2.2733383E0,1.3974464E0,4.0097107E1,2.1929498E0],"tree_param":{"num_deleted":"0","num_feature":"7","num_nodes":"29","size_leaf_vector":"1"}},{"base_weights":[-2.856396E-3,6.545551E-2,-3.448362E-2,2.595484E-1,-5.9040734E-3,3.0401352E-4,-1.589336E-1,3.2977456E-1,1.2888137E-3,8.653403E-2,-4.5498557E-2,-3.46775E-2,2.1465495E-1,-1.6031706E-1,-5.1272668E-2,9.526124E-2,1.686441E-1,-1.1754339E-1,1.1791518E-1,-3.0454564E-1,2.0426866E-3,1.4955096E-1,-4.6110585E-2,8.429752E-2,-2.6663142E-1,-2.8430115E-2,7.348238E-2,1.8548276E-1,-2.145774E-1,1.333326E-1,-1.2743895E-1,1.1308017E-3,-1.2551959E-1,1.02688126E-1,-5.1782656E-2,-1.4754955E-1,1.184517E-1,-8.150149E-3,-1.3174903E-1,1.9835138E-3,8.439018E-2,-7.2948816E-3,-1.22761495E-1,-6.8956815E-2,4.113579E-3,1.05870955E-1,-2.6953297E-2,2.660718E-2,-1.234082E-1],"categories":[],"categories_nodes":[],"categories_segments":[],"categories_sizes":[],"default_left":[0,0,0,0,0,0,0,0,0,0,0,0,0,0,0,0,0,0,0,0,0,0,0,0,0,0,0,0,0,0,0,0,0,0,0,0,0,0,0,0,0,0,0,0,0,0,0,0,0],"id":39,"left_children":[1,3,5,7,9,11,13,15,-1,-1,17,19,21,-1,23,25,-1,27,29,31,33,-1,-1,35,37,-1,-1,39,41,-1,43,-1,-1,-1,45,47,-1,-1,-1,-1,-1,-1,-1,-1,-1,-1,-1,-1,-1],"loss_changes":[1.4450467E-1,2.9489705E-1,1.9771922E-1,1.01047724E-1,2.050158E-1,2.8249693E-1,3.758771E-1,1.9001898E-1,0E0,0E0,1.9488831E-1,3.2165766E-1,6.292685E-1,0E0,2.8114122E-1,1.2073357E-1,0E0,3.68311E-1,4.7355857E-1,1.3801342E-1,5.5816746E-1,0E0,0E0,5.0441074E-1,1.3939902E-1,0E0,0E0,5.3776942E-2,3.2058614E-1,0E0,5.7341114E-2,0E0,0E0,0E0,4.3753877E-1,3.029673E-1,0E0,0E0,0E0,0E0,0E0,0E0,0E0,0E0,0E0,0E0,0E0,0E0,0E0],"parents":[2147483647,0,0,1,1,2,2,3,3,4,4,5,5,6,6,7,7,10,10,11,11,12,12,14,14,15,15,17,17,18,18,19,19,20,20,23,23,24,24,27,27,28,28,30,30,34,34,35,35],"right_children":[2,4,6,8,10,12,14,16,-1,-1,18,20,22,-1,24,26,-1,28,30,32,34,-1,-1,36,38,-1,-1,40,42,-1,44,-1,-1,-1,46,48,-1,-1,-1,-1,-1,-1,-1,-1,-1,-1,-1,-1,-1],"split_conditions":[1E0,3E0,3.70042E1,1.5155E2,7.6292E0,2.97E1,